<?xml version="1.0"?>
<opencv_storage>
<cascade>
  <stageType>BOOST</stageType>
  <featureType>HAAR</featureType>
  <height>24</height>
  <width>24</width>
  <stageParams>
    <boostType>GAB</boostType>
    <minHitRate>9.9500000476837158e-01</minHitRate>
    <maxFalseAlarm>5.0000000000000000e-01</maxFalseAlarm>
    <weightTrimRate>9.4999999999999996e-01</weightTrimRate>
    <maxDepth>1</maxDepth>
    <maxWeakCount>100</maxWeakCount></stageParams>
  <featureParams>
    <maxCatCount>0</maxCatCount>
    <featSize>1</featSize>
    <mode>BASIC</mode></featureParams>
  <stageNum>11</stageNum>
  <stages>
    <!-- stage 0 -->
    <_>
      <maxWeakCount>21</maxWeakCount>
      <stageThreshold>-7.7149510383605957e-01</stageThreshold>
      <weakClassifiers>
        <_>
          <internalNodes>
            0 -1 112 -1.1741130053997040e-01</internalNodes>
          <leafValues>
            6.2030905485153198e-01 -1.0437710583209991e-01</leafValues></_>
        <_>
          <internalNodes>
            0 -1 44 -1.3650741428136826e-02</internalNodes>
          <leafValues>
            -4.9581649899482727e-01 1.8473792076110840e-01</leafValues></_>
        <_>
          <internalNodes>
            0 -1 44 1.7048720270395279e-02</internalNodes>
          <leafValues>
            1.1077891290187836e-01 -7.0701044797897339e-01</leafValues></_>
        <_>
          <internalNodes>
            0 -1 179 4.5274212025105953e-03</internalNodes>
          <leafValues>
            -1.6479068994522095e-01 4.3776684999465942e-01</leafValues></_>
        <_>
          <internalNodes>
            0 -1 12 1.1076456867158413e-03</internalNodes>
          <leafValues>
            6.3025608658790588e-02 -6.6135746240615845e-01</leafValues></_>
        <_>
          <internalNodes>
            0 -1 7 4.4295427505858243e-04</internalNodes>
          <leafValues>
            1.9192658364772797e-01 -3.4173232316970825e-01</leafValues></_>
        <_>
          <internalNodes>
            0 -1 300 1.2112459167838097e-02</internalNodes>
          <leafValues>
            -6.4612142741680145e-02 7.9461389780044556e-01</leafValues></_>
        <_>
          <internalNodes>
            0 -1 230 -1.0549014434218407e-02</internalNodes>
          <leafValues>
            6.8196409940719604e-01 -8.9024335145950317e-02</leafValues></_>
        <_>
          <internalNodes>
            0 -1 6 -1.0339769069105387e-03</internalNodes>
          <leafValues>
            -5.6965523958206177e-01 1.3610769808292389e-01</leafValues></_>
        <_>
          <internalNodes>
            0 -1 225 -1.9589034840464592e-02</internalNodes>
          <leafValues>
            6.6074299812316895e-01 -9.4508424401283264e-02</leafValues></_>
        <_>
          <internalNodes>
            0 -1 127 -4.3028287589550018e-02</internalNodes>
          <leafValues>
            -5.0563639402389526e-01 1.1008956283330917e-01</leafValues></_>
        <_>
          <internalNodes>
            0 -1 271 -4.6764118596911430e-03</internalNodes>
          <leafValues>
            5.4491680860519409e-01 -1.1791732162237167e-01</leafValues></_>
        <_>
          <internalNodes>
            0 -1 10 2.9382604360580444e-01</internalNodes>
          <leafValues>
            8.1948496401309967e-02 -8.1646573543548584e-01</leafValues></_>
        <_>
          <internalNodes>
            0 -1 18 1.6057375073432922e-01</internalNodes>
          <leafValues>
            1.0598529130220413e-01 -5.5717027187347412e-01</leafValues></_>
        <_>
          <internalNodes>
            0 -1 136 1.1639329604804516e-03</internalNodes>
          <leafValues>
            -1.8796527385711670e-01 3.2185408473014832e-01</leafValues></_>
        <_>
          <internalNodes>
            0 -1 132 -3.5159422550350428e-03</internalNodes>
          <leafValues>
            4.7830346226692200e-01 -1.3795371353626251e-01</leafValues></_>
        <_>
          <internalNodes>
            0 -1 275 -9.0121722314506769e-04</internalNodes>
          <leafValues>
            -4.2815089225769043e-01 1.3880522549152374e-01</leafValues></_>
        <_>
          <internalNodes>
            0 -1 340 2.8285480220802128e-04</internalNodes>
          <leafValues>
            1.7188239097595215e-01 -3.1666478514671326e-01</leafValues></_>
        <_>
          <internalNodes>
            0 -1 186 2.7692038565874100e-03</internalNodes>
          <leafValues>
            -9.6176713705062866e-02 6.1845862865447998e-01</leafValues></_>
        <_>
          <internalNodes>
            0 -1 321 -8.2259988412261009e-03</internalNodes>
          <leafValues>
            -6.7219227552413940e-01 9.3452341854572296e-02</leafValues></_>
        <_>
          <internalNodes>
            0 -1 305 1.0637852828949690e-03</internalNodes>
          <leafValues>
            7.8569710254669189e-02 -5.9621095657348633e-01</leafValues></_></weakClassifiers></_>
    <!-- stage 1 -->
    <_>
      <maxWeakCount>23</maxWeakCount>
      <stageThreshold>-7.9616957902908325e-01</stageThreshold>
      <weakClassifiers>
        <_>
          <internalNodes>
            0 -1 349 5.5123873054981232e-02</internalNodes>
          <leafValues>
            3.8655462861061096e-01 -7.2222220897674561e-01</leafValues></_>
        <_>
          <internalNodes>
            0 -1 156 -4.7366530634462833e-03</internalNodes>
          <leafValues>
            5.7389897108078003e-01 -9.5009572803974152e-02</leafValues></_>
        <_>
          <internalNodes>
            0 -1 149 4.3216445483267307e-03</internalNodes>
          <leafValues>
            -1.6950874030590057e-01 4.6295583248138428e-01</leafValues></_>
        <_>
          <internalNodes>
            0 -1 363 -1.8736997153609991e-03</internalNodes>
          <leafValues>
            -4.1732680797576904e-01 1.8030132353305817e-01</leafValues></_>
        <_>
          <internalNodes>
            0 -1 237 -2.3992016911506653e-02</internalNodes>
          <leafValues>
            5.9498894214630127e-01 -1.2879645824432373e-01</leafValues></_>
        <_>
          <internalNodes>
            0 -1 39 -2.9186145402491093e-03</internalNodes>
          <leafValues>
            -4.8979899287223816e-01 1.2942257523536682e-01</leafValues></_>
        <_>
          <internalNodes>
            0 -1 359 -4.1154935024678707e-03</internalNodes>
          <leafValues>
            6.0787737369537354e-01 -1.2322496622800827e-01</leafValues></_>
        <_>
          <internalNodes>
            0 -1 268 -3.1953542493283749e-03</internalNodes>
          <leafValues>
            4.6847894787788391e-01 -1.3044360280036926e-01</leafValues></_>
        <_>
          <internalNodes>
            0 -1 270 3.8511012680828571e-03</internalNodes>
          <leafValues>
            -1.7215129733085632e-01 4.7941637039184570e-01</leafValues></_>
        <_>
          <internalNodes>
            0 -1 204 2.3947418667376041e-03</internalNodes>
          <leafValues>
            1.5341107547283173e-01 -5.7710105180740356e-01</leafValues></_>
        <_>
          <internalNodes>
            0 -1 111 -6.8505275994539261e-03</internalNodes>
          <leafValues>
            3.8798344135284424e-01 -1.6975922882556915e-01</leafValues></_>
        <_>
          <internalNodes>
            0 -1 168 -3.0246088281273842e-03</internalNodes>
          <leafValues>
            -5.0551575422286987e-01 1.3715107738971710e-01</leafValues></_>
        <_>
          <internalNodes>
            0 -1 40 1.2258295901119709e-03</internalNodes>
          <leafValues>
            1.6280567646026611e-01 -3.4056282043457031e-01</leafValues></_>
        <_>
          <internalNodes>
            0 -1 312 1.8671087920665741e-02</internalNodes>
          <leafValues>
            -1.3689485192298889e-01 4.1005906462669373e-01</leafValues></_>
        <_>
          <internalNodes>
            0 -1 222 -3.0153931584209204e-04</internalNodes>
          <leafValues>
            -3.7270742654800415e-01 1.5740583837032318e-01</leafValues></_>
        <_>
          <internalNodes>
            0 -1 255 3.9883898571133614e-03</internalNodes>
          <leafValues>
            -1.4171780645847321e-01 4.5517137646675110e-01</leafValues></_>
        <_>
          <internalNodes>
            0 -1 81 -1.2107715010643005e-02</internalNodes>
          <leafValues>
            6.1751687526702881e-01 -8.4703430533409119e-02</leafValues></_>
        <_>
          <internalNodes>
            0 -1 1 7.5597711838781834e-04</internalNodes>
          <leafValues>
            9.3037255108356476e-02 -6.3896334171295166e-01</leafValues></_>
        <_>
          <internalNodes>
            0 -1 115 -4.6134400181472301e-03</internalNodes>
          <leafValues>
            5.5134522914886475e-01 -1.1026173084974289e-01</leafValues></_>
        <_>
          <internalNodes>
            0 -1 167 9.4865460414439440e-04</internalNodes>
          <leafValues>
            1.3981473445892334e-01 -4.3695577979087830e-01</leafValues></_>
        <_>
          <internalNodes>
            0 -1 296 -6.5201823599636555e-03</internalNodes>
          <leafValues>
            4.9745562672615051e-01 -1.1906453967094421e-01</leafValues></_>
        <_>
          <internalNodes>
            0 -1 390 -1.0916197206825018e-03</internalNodes>
          <leafValues>
            -3.3182731270790100e-01 1.7635822296142578e-01</leafValues></_>
        <_>
          <internalNodes>
            0 -1 19 -2.0591419935226440e-01</internalNodes>
          <leafValues>
            -5.0402355194091797e-01 1.1426527798175812e-01</leafValues></_></weakClassifiers></_>
    <!-- stage 2 -->
    <_>
      <maxWeakCount>29</maxWeakCount>
      <stageThreshold>-6.9816339015960693e-01</stageThreshold>
      <weakClassifiers>
        <_>
          <internalNodes>
            0 -1 189 2.1807297598570585e-03</internalNodes>
          <leafValues>
            2.2510460019111633e-01 7.5737702846527100e-01</leafValues></_>
        <_>
          <internalNodes>
            0 -1 303 5.0563935656100512e-04</internalNodes>
          <leafValues>
            1.6923819482326508e-01 -3.5893985629081726e-01</leafValues></_>
        <_>
          <internalNodes>
            0 -1 184 1.1930225882679224e-03</internalNodes>
          <leafValues>
            -1.0454905033111572e-01 5.6563049554824829e-01</leafValues></_>
        <_>
          <internalNodes>
            0 -1 175 -2.5267968885600567e-03</internalNodes>
          <leafValues>
            4.5020616054534912e-01 -1.1647064238786697e-01</leafValues></_>
        <_>
          <internalNodes>
            0 -1 181 3.1220056116580963e-03</internalNodes>
          <leafValues>
            -1.5121063590049744e-01 3.3958595991134644e-01</leafValues></_>
        <_>
          <internalNodes>
            0 -1 134 -5.3517311811447144e-02</internalNodes>
          <leafValues>
            3.1624263525009155e-01 -1.5739540755748749e-01</leafValues></_>
        <_>
          <internalNodes>
            0 -1 176 -5.5810906924307346e-03</internalNodes>
          <leafValues>
            4.6099460124969482e-01 -1.2394415587186813e-01</leafValues></_>
        <_>
          <internalNodes>
            0 -1 4 -3.0297148041427135e-03</internalNodes>
          <leafValues>
            -5.3005081415176392e-01 9.6867024898529053e-02</leafValues></_>
        <_>
          <internalNodes>
            0 -1 256 2.1045515313744545e-03</internalNodes>
          <leafValues>
            -7.9710759222507477e-02 5.9043151140213013e-01</leafValues></_>
        <_>
          <internalNodes>
            0 -1 12 1.1030086316168308e-03</internalNodes>
          <leafValues>
            8.8879540562629700e-02 -5.8915692567825317e-01</leafValues></_>
        <_>
          <internalNodes>
            0 -1 370 -1.0393743286840618e-04</internalNodes>
          <leafValues>
            2.0904858410358429e-01 -2.1265469491481781e-01</leafValues></_>
        <_>
          <internalNodes>
            0 -1 89 1.9562628120183945e-02</internalNodes>
          <leafValues>
            -1.0603442043066025e-01 4.7944876551628113e-01</leafValues></_>
        <_>
          <internalNodes>
            0 -1 11 -3.1168165151029825e-04</internalNodes>
          <leafValues>
            -3.6643543839454651e-01 1.4872539043426514e-01</leafValues></_>
        <_>
          <internalNodes>
            0 -1 244 -2.4001104757189751e-03</internalNodes>
          <leafValues>
            5.1087903976440430e-01 -8.9097701013088226e-02</leafValues></_>
        <_>
          <internalNodes>
            0 -1 61 -2.3405733518302441e-03</internalNodes>
          <leafValues>
            3.4690439701080322e-01 -1.2812367081642151e-01</leafValues></_>
        <_>
          <internalNodes>
            0 -1 243 -1.6432850388810039e-03</internalNodes>
          <leafValues>
            2.6549422740936279e-01 -1.5526568889617920e-01</leafValues></_>
        <_>
          <internalNodes>
            0 -1 42 6.5865679644048214e-03</internalNodes>
          <leafValues>
            7.7480390667915344e-02 -5.9665876626968384e-01</leafValues></_>
        <_>
          <internalNodes>
            0 -1 212 -3.1980569474399090e-03</internalNodes>
          <leafValues>
            5.7834118604660034e-01 -8.3212710916996002e-02</leafValues></_>
        <_>
          <internalNodes>
            0 -1 261 -1.4480363577604294e-02</internalNodes>
          <leafValues>
            3.4467291831970215e-01 -1.2448008358478546e-01</leafValues></_>
        <_>
          <internalNodes>
            0 -1 41 -2.8955263551324606e-03</internalNodes>
          <leafValues>
            -5.7970458269119263e-01 8.9027695357799530e-02</leafValues></_>
        <_>
          <internalNodes>
            0 -1 80 -7.6124500483274460e-03</internalNodes>
          <leafValues>
            6.4508473873138428e-01 -8.1655643880367279e-02</leafValues></_>
        <_>
          <internalNodes>
            0 -1 72 3.8975013885647058e-03</internalNodes>
          <leafValues>
            -1.3700926303863525e-01 3.6230960488319397e-01</leafValues></_>
        <_>
          <internalNodes>
            0 -1 55 1.2730431044474244e-03</internalNodes>
          <leafValues>
            1.0082614421844482e-01 -5.4864227771759033e-01</leafValues></_>
        <_>
          <internalNodes>
            0 -1 343 -2.2545365936821327e-05</internalNodes>
          <leafValues>
            2.2072991728782654e-01 -1.9630400836467743e-01</leafValues></_>
        <_>
          <internalNodes>
            0 -1 17 -5.6001762859523296e-03</internalNodes>
          <leafValues>
            -3.0569332838058472e-01 1.5263527631759644e-01</leafValues></_>
        <_>
          <internalNodes>
            0 -1 155 7.9235387966036797e-04</internalNodes>
          <leafValues>
            -1.5422233939170837e-01 3.2018136978149414e-01</leafValues></_>
        <_>
          <internalNodes>
            0 -1 126 -3.4182544331997633e-03</internalNodes>
          <leafValues>
            -6.1180466413497925e-01 8.1126436591148376e-02</leafValues></_>
        <_>
          <internalNodes>
            0 -1 57 7.3270127177238464e-03</internalNodes>
          <leafValues>
            -1.0336655378341675e-01 5.2155226469039917e-01</leafValues></_>
        <_>
          <internalNodes>
            0 -1 163 -8.2282461225986481e-03</internalNodes>
          <leafValues>
            5.4808908700942993e-01 -8.1162743270397186e-02</leafValues></_></weakClassifiers></_>
    <!-- stage 3 -->
    <_>
      <maxWeakCount>36</maxWeakCount>
      <stageThreshold>-5.9849625825881958e-01</stageThreshold>
      <weakClassifiers>
        <_>
          <internalNodes>
            0 -1 331 4.6877764165401459e-02</internalNodes>
          <leafValues>
            3.8602682948112488e-01 -5.6626504659652710e-01</leafValues></_>
        <_>
          <internalNodes>
            0 -1 87 -3.8006700575351715e-02</internalNodes>
          <leafValues>
            2.0011821389198303e-01 -2.8872433304786682e-01</leafValues></_>
        <_>
          <internalNodes>
            0 -1 283 -4.0061203762888908e-03</internalNodes>
          <leafValues>
            7.5619411468505859e-01 -8.4808535873889923e-02</leafValues></_>
        <_>
          <internalNodes>
            0 -1 93 -6.2189246527850628e-03</internalNodes>
          <leafValues>
            -4.9623343348503113e-01 7.9176835715770721e-02</leafValues></_>
        <_>
          <internalNodes>
            0 -1 114 -9.0905446559190750e-03</internalNodes>
          <leafValues>
            4.2887175083160400e-01 -1.0818125307559967e-01</leafValues></_>
        <_>
          <internalNodes>
            0 -1 302 5.1913096103817225e-04</internalNodes>
          <leafValues>
            1.0760439932346344e-01 -4.9506384134292603e-01</leafValues></_>
        <_>
          <internalNodes>
            0 -1 174 1.2872656807303429e-02</internalNodes>
          <leafValues>
            -6.8546719849109650e-02 7.4800068140029907e-01</leafValues></_>
        <_>
          <internalNodes>
            0 -1 148 7.0224551018327475e-04</internalNodes>
          <leafValues>
            1.0366086661815643e-01 -4.1064980626106262e-01</leafValues></_>
        <_>
          <internalNodes>
            0 -1 91 2.4231425486505032e-03</internalNodes>
          <leafValues>
            -8.2554839551448822e-02 5.2552932500839233e-01</leafValues></_>
        <_>
          <internalNodes>
            0 -1 229 3.8841008208692074e-03</internalNodes>
          <leafValues>
            -1.0943734645843506e-01 3.9916154742240906e-01</leafValues></_>
        <_>
          <internalNodes>
            0 -1 260 2.3355428129434586e-02</internalNodes>
          <leafValues>
            -1.0857418924570084e-01 3.6854755878448486e-01</leafValues></_>
        <_>
          <internalNodes>
            0 -1 76 6.3732643611729145e-03</internalNodes>
          <leafValues>
            -8.6825951933860779e-02 4.6951174736022949e-01</leafValues></_>
        <_>
          <internalNodes>
            0 -1 250 -2.1369615569710732e-03</internalNodes>
          <leafValues>
            -3.3061102032661438e-01 1.4284104108810425e-01</leafValues></_>
        <_>
          <internalNodes>
            0 -1 2 -9.5253752078860998e-05</internalNodes>
          <leafValues>
            -3.2675224542617798e-01 1.3044372200965881e-01</leafValues></_>
        <_>
          <internalNodes>
            0 -1 238 -2.0315054804086685e-02</internalNodes>
          <leafValues>
            4.3601152300834656e-01 -9.7361423075199127e-02</leafValues></_>
        <_>
          <internalNodes>
            0 -1 380 -4.2628236114978790e-03</internalNodes>
          <leafValues>
            -3.3306592702865601e-01 1.2687739729881287e-01</leafValues></_>
        <_>
          <internalNodes>
            0 -1 389 5.7525851298123598e-04</internalNodes>
          <leafValues>
            1.6427171230316162e-01 -2.7530452609062195e-01</leafValues></_>
        <_>
          <internalNodes>
            0 -1 164 -8.6552686989307404e-03</internalNodes>
          <leafValues>
            5.5102860927581787e-01 -8.0558866262435913e-02</leafValues></_>
        <_>
          <internalNodes>
            0 -1 105 -3.4442422911524773e-03</internalNodes>
          <leafValues>
            4.7669625282287598e-01 -7.0451594889163971e-02</leafValues></_>
        <_>
          <internalNodes>
            0 -1 108 -3.5662846639752388e-03</internalNodes>
          <leafValues>
            -4.8408585786819458e-01 8.6364537477493286e-02</leafValues></_>
        <_>
          <internalNodes>
            0 -1 60 3.0776608036831021e-04</internalNodes>
          <leafValues>
            1.1184059828519821e-01 -3.1172448396682739e-01</leafValues></_>
        <_>
          <internalNodes>
            0 -1 96 1.9504590891301632e-03</internalNodes>
          <leafValues>
            -1.2214021384716034e-01 3.3007344603538513e-01</leafValues></_>
        <_>
          <internalNodes>
            0 -1 119 1.9248356111347675e-03</internalNodes>
          <leafValues>
            -1.5460039675235748e-01 2.4092864990234375e-01</leafValues></_>
        <_>
          <internalNodes>
            0 -1 288 2.2094484884291887e-03</internalNodes>
          <leafValues>
            -7.9455830156803131e-02 4.7031652927398682e-01</leafValues></_>
        <_>
          <internalNodes>
            0 -1 281 -5.6261806748807430e-03</internalNodes>
          <leafValues>
            5.7620352506637573e-01 -5.7842183858156204e-02</leafValues></_>
        <_>
          <internalNodes>
            0 -1 68 4.0773488581180573e-03</internalNodes>
          <leafValues>
            7.6312758028507233e-02 -5.6975203752517700e-01</leafValues></_>
        <_>
          <internalNodes>
            0 -1 27 -7.4171740561723709e-03</internalNodes>
          <leafValues>
            3.6843103170394897e-01 -1.2437520921230316e-01</leafValues></_>
        <_>
          <internalNodes>
            0 -1 140 -1.1189782992005348e-02</internalNodes>
          <leafValues>
            6.5330076217651367e-01 -6.1173275113105774e-02</leafValues></_>
        <_>
          <internalNodes>
            0 -1 308 -3.7018775939941406e-02</internalNodes>
          <leafValues>
            2.5682726502418518e-01 -1.5808081626892090e-01</leafValues></_>
        <_>
          <internalNodes>
            0 -1 135 2.5642989203333855e-03</internalNodes>
          <leafValues>
            -9.9814780056476593e-02 4.0380707383155823e-01</leafValues></_>
        <_>
          <internalNodes>
            0 -1 200 -2.7990588918328285e-02</internalNodes>
          <leafValues>
            3.2962456345558167e-01 -1.3267992436885834e-01</leafValues></_>
        <_>
          <internalNodes>
            0 -1 109 1.8334273248910904e-02</internalNodes>
          <leafValues>
            5.9847127646207809e-02 -7.7994304895401001e-01</leafValues></_>
        <_>
          <internalNodes>
            0 -1 274 -4.4002467766404152e-03</internalNodes>
          <leafValues>
            7.1112012863159180e-01 -6.1495877802371979e-02</leafValues></_>
        <_>
          <internalNodes>
            0 -1 56 -4.5789647847414017e-03</internalNodes>
          <leafValues>
            -4.4079875946044922e-01 9.5577917993068695e-02</leafValues></_>
        <_>
          <internalNodes>
            0 -1 161 3.7933941930532455e-03</internalNodes>
          <leafValues>
            -5.7428486645221710e-02 7.0805728435516357e-01</leafValues></_>
        <_>
          <internalNodes>
            0 -1 263 -1.0637736413627863e-03</internalNodes>
          <leafValues>
            -4.1489437222480774e-01 1.0139568150043488e-01</leafValues></_></weakClassifiers></_>
    <!-- stage 4 -->
    <_>
      <maxWeakCount>35</maxWeakCount>
      <stageThreshold>-6.8371200561523438e-01</stageThreshold>
      <weakClassifiers>
        <_>
          <internalNodes>
            0 -1 198 -6.6375494934618473e-03</internalNodes>
          <leafValues>
            -4.8888888955116272e-01 3.8581559062004089e-01</leafValues></_>
        <_>
          <internalNodes>
            0 -1 254 5.9125558473169804e-03</internalNodes>
          <leafValues>
            -3.7244372069835663e-02 5.1696813106536865e-01</leafValues></_>
        <_>
          <internalNodes>
            0 -1 53 -5.7903392007574439e-04</internalNodes>
          <leafValues>
            -4.1410163044929504e-01 7.7846057713031769e-02</leafValues></_>
        <_>
          <internalNodes>
            0 -1 240 4.9825445748865604e-03</internalNodes>
          <leafValues>
            -7.6912790536880493e-02 5.3179228305816650e-01</leafValues></_>
        <_>
          <internalNodes>
            0 -1 227 6.1405438464134932e-04</internalNodes>
          <leafValues>
            -2.1181015670299530e-01 2.0990629494190216e-01</leafValues></_>
        <_>
          <internalNodes>
            0 -1 386 7.0868927286937833e-04</internalNodes>
          <leafValues>
            7.8626669943332672e-02 -5.5029320716857910e-01</leafValues></_>
        <_>
          <internalNodes>
            0 -1 159 1.7535890219733119e-04</internalNodes>
          <leafValues>
            -1.7725932598114014e-01 2.3327276110649109e-01</leafValues></_>
        <_>
          <internalNodes>
            0 -1 122 -1.2304743286222219e-03</internalNodes>
          <leafValues>
            -4.3716910481452942e-01 8.4952376782894135e-02</leafValues></_>
        <_>
          <internalNodes>
            0 -1 16 -1.0958273196592927e-03</internalNodes>
          <leafValues>
            -5.8636486530303955e-01 7.1700215339660645e-02</leafValues></_>
        <_>
          <internalNodes>
            0 -1 311 -5.6597385555505753e-03</internalNodes>
          <leafValues>
            4.6859490871429443e-01 -9.0335182845592499e-02</leafValues></_>
        <_>
          <internalNodes>
            0 -1 316 2.1780582610517740e-03</internalNodes>
          <leafValues>
            -1.1125004291534424e-01 3.8791567087173462e-01</leafValues></_>
        <_>
          <internalNodes>
            0 -1 207 -1.7378586344420910e-03</internalNodes>
          <leafValues>
            6.0498255491256714e-01 -6.4247965812683105e-02</leafValues></_>
        <_>
          <internalNodes>
            0 -1 95 -2.7782248798757792e-04</internalNodes>
          <leafValues>
            -5.6473505496978760e-01 8.2249812781810760e-02</leafValues></_>
        <_>
          <internalNodes>
            0 -1 36 4.2008988559246063e-02</internalNodes>
          <leafValues>
            6.9979399442672729e-02 -5.4181826114654541e-01</leafValues></_>
        <_>
          <internalNodes>
            0 -1 48 -2.1065916866064072e-02</internalNodes>
          <leafValues>
            -3.3491674065589905e-01 1.2872877717018127e-01</leafValues></_>
        <_>
          <internalNodes>
            0 -1 366 1.6092995647341013e-03</internalNodes>
          <leafValues>
            -1.5861466526985168e-01 2.4735563993453979e-01</leafValues></_>
        <_>
          <internalNodes>
            0 -1 328 1.0613751364871860e-03</internalNodes>
          <leafValues>
            1.0902747511863708e-01 -3.7143233418464661e-01</leafValues></_>
        <_>
          <internalNodes>
            0 -1 307 5.8072907850146294e-03</internalNodes>
          <leafValues>
            -1.4860227704048157e-01 2.9904744029045105e-01</leafValues></_>
        <_>
          <internalNodes>
            0 -1 20 -5.4402020759880543e-04</internalNodes>
          <leafValues>
            -3.3442056179046631e-01 1.1715949326753616e-01</leafValues></_>
        <_>
          <internalNodes>
            0 -1 352 5.0622150301933289e-03</internalNodes>
          <leafValues>
            -1.1195948719978333e-01 3.8068112730979919e-01</leafValues></_>
        <_>
          <internalNodes>
            0 -1 208 1.3123437529429793e-03</internalNodes>
          <leafValues>
            -1.3355739414691925e-01 2.9294922947883606e-01</leafValues></_>
        <_>
          <internalNodes>
            0 -1 85 1.0350442025810480e-03</internalNodes>
          <leafValues>
            9.1624967753887177e-02 -4.5296645164489746e-01</leafValues></_>
        <_>
          <internalNodes>
            0 -1 37 -5.3025274537503719e-03</internalNodes>
          <leafValues>
            -4.1084936261177063e-01 9.6655920147895813e-02</leafValues></_>
        <_>
          <internalNodes>
            0 -1 289 -4.4058943167328835e-03</internalNodes>
          <leafValues>
            4.5190516114234924e-01 -9.0161018073558807e-02</leafValues></_>
        <_>
          <internalNodes>
            0 -1 187 1.9855440768878907e-04</internalNodes>
          <leafValues>
            -1.3033370673656464e-01 2.7777355909347534e-01</leafValues></_>
        <_>
          <internalNodes>
            0 -1 364 -8.5074745584279299e-04</internalNodes>
          <leafValues>
            -5.3982692956924438e-01 7.6970815658569336e-02</leafValues></_>
        <_>
          <internalNodes>
            0 -1 70 5.3139298688620329e-04</internalNodes>
          <leafValues>
            -1.9360899925231934e-01 1.9705694913864136e-01</leafValues></_>
        <_>
          <internalNodes>
            0 -1 74 2.0504216663539410e-03</internalNodes>
          <leafValues>
            1.0070079565048218e-01 -3.9818441867828369e-01</leafValues></_>
        <_>
          <internalNodes>
            0 -1 151 2.0991824567317963e-03</internalNodes>
          <leafValues>
            -1.3304449617862701e-01 3.0695191025733948e-01</leafValues></_>
        <_>
          <internalNodes>
            0 -1 215 -2.4538504658266902e-04</internalNodes>
          <leafValues>
            -2.4526782333850861e-01 1.7129564285278320e-01</leafValues></_>
        <_>
          <internalNodes>
            0 -1 286 -3.8003982044756413e-03</internalNodes>
          <leafValues>
            5.6776684522628784e-01 -6.3805513083934784e-02</leafValues></_>
        <_>
          <internalNodes>
            0 -1 106 -3.6747697740793228e-03</internalNodes>
          <leafValues>
            -5.5910402536392212e-01 7.8279040753841400e-02</leafValues></_>
        <_>
          <internalNodes>
            0 -1 202 3.8349768146872520e-05</internalNodes>
          <leafValues>
            -1.8172836303710938e-01 2.4054881930351257e-01</leafValues></_>
        <_>
          <internalNodes>
            0 -1 171 -2.0635135471820831e-02</internalNodes>
          <leafValues>
            -6.4307546615600586e-01 5.9523422271013260e-02</leafValues></_>
        <_>
          <internalNodes>
            0 -1 266 1.4258628711104393e-02</internalNodes>
          <leafValues>
            -1.1486501246690750e-01 3.7653082609176636e-01</leafValues></_></weakClassifiers></_>
    <!-- stage 5 -->
    <_>
      <maxWeakCount>33</maxWeakCount>
      <stageThreshold>-5.8769142627716064e-01</stageThreshold>
      <weakClassifiers>
        <_>
          <internalNodes>
            0 -1 45 -6.1856530606746674e-02</internalNodes>
          <leafValues>
            4.4871795177459717e-01 2.4509804323315620e-02</leafValues></_>
        <_>
          <internalNodes>
            0 -1 287 -3.1285560689866543e-03</internalNodes>
          <leafValues>
            5.2052605152130127e-01 -8.7884597480297089e-02</leafValues></_>
        <_>
          <internalNodes>
            0 -1 280 9.7161512821912766e-03</internalNodes>
          <leafValues>
            -7.0089824497699738e-02 5.4159408807754517e-01</leafValues></_>
        <_>
          <internalNodes>
            0 -1 269 7.3874020017683506e-03</internalNodes>
          <leafValues>
            -1.3561612367630005e-01 4.4673982262611389e-01</leafValues></_>
        <_>
          <internalNodes>
            0 -1 293 1.8202762585133314e-03</internalNodes>
          <leafValues>
            9.7650781273841858e-02 -5.6878584623336792e-01</leafValues></_>
        <_>
          <internalNodes>
            0 -1 214 -1.7609473317861557e-02</internalNodes>
          <leafValues>
            6.2239766120910645e-01 -7.0562757551670074e-02</leafValues></_>
        <_>
          <internalNodes>
            0 -1 233 -5.6418217718601227e-04</internalNodes>
          <leafValues>
            -4.7965320944786072e-01 8.8555335998535156e-02</leafValues></_>
        <_>
          <internalNodes>
            0 -1 242 1.6213420312851667e-03</internalNodes>
          <leafValues>
            -1.0165690630674362e-01 3.8178420066833496e-01</leafValues></_>
        <_>
          <internalNodes>
            0 -1 137 -2.1832436323165894e-03</internalNodes>
          <leafValues>
            3.3599162101745605e-01 -1.1990295350551605e-01</leafValues></_>
        <_>
          <internalNodes>
            0 -1 28 1.7570516094565392e-02</internalNodes>
          <leafValues>
            -9.4007283449172974e-02 3.8910096883773804e-01</leafValues></_>
        <_>
          <internalNodes>
            0 -1 24 -1.0132563114166260e-01</internalNodes>
          <leafValues>
            3.1710538268089294e-01 -1.2594501674175262e-01</leafValues></_>
        <_>
          <internalNodes>
            0 -1 226 8.3276559598743916e-04</internalNodes>
          <leafValues>
            -1.6215439140796661e-01 2.4790193140506744e-01</leafValues></_>
        <_>
          <internalNodes>
            0 -1 223 -6.5495166927576065e-03</internalNodes>
          <leafValues>
            4.7086778283119202e-01 -9.3158848583698273e-02</leafValues></_>
        <_>
          <internalNodes>
            0 -1 14 -4.9941265024244785e-04</internalNodes>
          <leafValues>
            -2.8476709127426147e-01 1.3367737829685211e-01</leafValues></_>
        <_>
          <internalNodes>
            0 -1 178 1.5042182058095932e-03</internalNodes>
          <leafValues>
            -9.3764647841453552e-02 3.7260359525680542e-01</leafValues></_>
        <_>
          <internalNodes>
            0 -1 338 2.2362004965543747e-03</internalNodes>
          <leafValues>
            4.5609787106513977e-02 -8.8114202022552490e-01</leafValues></_>
        <_>
          <internalNodes>
            0 -1 103 -3.0313516035676003e-03</internalNodes>
          <leafValues>
            2.8337332606315613e-01 -1.4620678126811981e-01</leafValues></_>
        <_>
          <internalNodes>
            0 -1 104 8.8860057294368744e-03</internalNodes>
          <leafValues>
            -8.1759989261627197e-02 5.0552517175674438e-01</leafValues></_>
        <_>
          <internalNodes>
            0 -1 46 -6.7876069806516171e-04</internalNodes>
          <leafValues>
            -4.0982726216316223e-01 1.0106351971626282e-01</leafValues></_>
        <_>
          <internalNodes>
            0 -1 335 -1.3226747512817383e-02</internalNodes>
          <leafValues>
            4.9790507555007935e-01 -8.4424167871475220e-02</leafValues></_>
        <_>
          <internalNodes>
            0 -1 388 -3.1542112119495869e-03</internalNodes>
          <leafValues>
            -3.7453290820121765e-01 1.1534807831048965e-01</leafValues></_>
        <_>
          <internalNodes>
            0 -1 185 -2.6945555582642555e-03</internalNodes>
          <leafValues>
            4.0918362140655518e-01 -9.9341318011283875e-02</leafValues></_>
        <_>
          <internalNodes>
            0 -1 173 1.1945813894271851e-03</internalNodes>
          <leafValues>
            -1.6850496828556061e-01 2.6492834091186523e-01</leafValues></_>
        <_>
          <internalNodes>
            0 -1 8 -4.6503305435180664e-02</internalNodes>
          <leafValues>
            1.9770219922065735e-01 -2.0229999721050262e-01</leafValues></_>
        <_>
          <internalNodes>
            0 -1 342 5.6822588667273521e-03</internalNodes>
          <leafValues>
            -7.3826707899570465e-02 4.9801436066627502e-01</leafValues></_>
        <_>
          <internalNodes>
            0 -1 291 -4.3107251985929906e-04</internalNodes>
          <leafValues>
            2.2887280583381653e-01 -1.5857057273387909e-01</leafValues></_>
        <_>
          <internalNodes>
            0 -1 251 -8.0808770144358277e-04</internalNodes>
          <leafValues>
            -3.9142787456512451e-01 1.1280484497547150e-01</leafValues></_>
        <_>
          <internalNodes>
            0 -1 142 -7.2444067336618900e-04</internalNodes>
          <leafValues>
            1.9979338347911835e-01 -1.9613227248191833e-01</leafValues></_>
        <_>
          <internalNodes>
            0 -1 165 -3.0784137547016144e-02</internalNodes>
          <leafValues>
            9.5272111892700195e-01 -4.2863216251134872e-02</leafValues></_>
        <_>
          <internalNodes>
            0 -1 322 4.8388568684458733e-03</internalNodes>
          <leafValues>
            -4.6672664582729340e-02 6.0468614101409912e-01</leafValues></_>
        <_>
          <internalNodes>
            0 -1 123 -1.0176371783018112e-02</internalNodes>
          <leafValues>
            -8.6364191770553589e-01 5.0467699766159058e-02</leafValues></_>
        <_>
          <internalNodes>
            0 -1 77 -9.9111744202673435e-04</internalNodes>
          <leafValues>
            2.0703665912151337e-01 -1.8680028617382050e-01</leafValues></_>
        <_>
          <internalNodes>
            0 -1 82 2.5826611090451479e-03</internalNodes>
          <leafValues>
            -1.8644917011260986e-01 2.2191379964351654e-01</leafValues></_></weakClassifiers></_>
    <!-- stage 6 -->
    <_>
      <maxWeakCount>36</maxWeakCount>
      <stageThreshold>-5.7513552904129028e-01</stageThreshold>
      <weakClassifiers>
        <_>
          <internalNodes>
            0 -1 384 -5.3380220197141171e-04</internalNodes>
          <leafValues>
            -1.1711711436510086e-01 4.1158059239387512e-01</leafValues></_>
        <_>
          <internalNodes>
            0 -1 160 -6.0354368761181831e-03</internalNodes>
          <leafValues>
            4.7009095549583435e-01 -6.6243596374988556e-02</leafValues></_>
        <_>
          <internalNodes>
            0 -1 130 -6.5736421383917332e-03</internalNodes>
          <leafValues>
            5.2704417705535889e-01 -7.6789163053035736e-02</leafValues></_>
        <_>
          <internalNodes>
            0 -1 358 -3.8184877485036850e-03</internalNodes>
          <leafValues>
            3.2573938369750977e-01 -1.0470797866582870e-01</leafValues></_>
        <_>
          <internalNodes>
            0 -1 264 -2.0784614607691765e-03</internalNodes>
          <leafValues>
            -4.1287884116172791e-01 7.9965822398662567e-02</leafValues></_>
        <_>
          <internalNodes>
            0 -1 267 -1.4151957817375660e-02</internalNodes>
          <leafValues>
            6.6385507583618164e-01 -5.4735280573368073e-02</leafValues></_>
        <_>
          <internalNodes>
            0 -1 147 -8.7628158507868648e-04</internalNodes>
          <leafValues>
            -5.7663094997406006e-01 6.2634721398353577e-02</leafValues></_>
        <_>
          <internalNodes>
            0 -1 224 1.0480064898729324e-02</internalNodes>
          <leafValues>
            -7.1962967514991760e-02 5.9204238653182983e-01</leafValues></_>
        <_>
          <internalNodes>
            0 -1 235 6.9191833026707172e-03</internalNodes>
          <leafValues>
            -6.6661745309829712e-02 5.0238430500030518e-01</leafValues></_>
        <_>
          <internalNodes>
            0 -1 145 -3.3291983418166637e-03</internalNodes>
          <leafValues>
            -3.8230118155479431e-01 1.0283840447664261e-01</leafValues></_>
        <_>
          <internalNodes>
            0 -1 47 3.0441267881542444e-04</internalNodes>
          <leafValues>
            -2.0623347163200378e-01 1.7237868905067444e-01</leafValues></_>
        <_>
          <internalNodes>
            0 -1 86 -3.5301306843757629e-01</internalNodes>
          <leafValues>
            2.9185613989830017e-01 -1.1069017648696899e-01</leafValues></_>
        <_>
          <internalNodes>
            0 -1 325 -4.7552566975355148e-03</internalNodes>
          <leafValues>
            6.2367862462997437e-01 -5.8247953653335571e-02</leafValues></_>
        <_>
          <internalNodes>
            0 -1 162 5.1672719419002533e-03</internalNodes>
          <leafValues>
            -6.6784739494323730e-02 4.9610516428947449e-01</leafValues></_>
        <_>
          <internalNodes>
            0 -1 378 8.6286328732967377e-03</internalNodes>
          <leafValues>
            8.1862188875675201e-02 -4.8041635751724243e-01</leafValues></_>
        <_>
          <internalNodes>
            0 -1 32 -2.0346958190202713e-02</internalNodes>
          <leafValues>
            3.9111813902854919e-01 -9.0332202613353729e-02</leafValues></_>
        <_>
          <internalNodes>
            0 -1 58 5.8669839054346085e-03</internalNodes>
          <leafValues>
            -1.2571983039379120e-01 3.0942347645759583e-01</leafValues></_>
        <_>
          <internalNodes>
            0 -1 9 4.8998631536960602e-03</internalNodes>
          <leafValues>
            7.7370144426822662e-02 -5.2097094058990479e-01</leafValues></_>
        <_>
          <internalNodes>
            0 -1 295 2.9871696606278419e-03</internalNodes>
          <leafValues>
            -7.0219688117504120e-02 5.3780072927474976e-01</leafValues></_>
        <_>
          <internalNodes>
            0 -1 309 1.7306299414485693e-03</internalNodes>
          <leafValues>
            -1.8934598565101624e-01 2.0109108090400696e-01</leafValues></_>
        <_>
          <internalNodes>
            0 -1 99 -1.8216553144156933e-03</internalNodes>
          <leafValues>
            2.9597413539886475e-01 -1.3515411317348480e-01</leafValues></_>
        <_>
          <internalNodes>
            0 -1 257 -7.5229280628263950e-04</internalNodes>
          <leafValues>
            2.3748841881752014e-01 -1.7493368685245514e-01</leafValues></_>
        <_>
          <internalNodes>
            0 -1 329 -1.2509981170296669e-03</internalNodes>
          <leafValues>
            -4.1287806630134583e-01 9.9671095609664917e-02</leafValues></_>
        <_>
          <internalNodes>
            0 -1 365 -1.3276229146867990e-03</internalNodes>
          <leafValues>
            2.6314100623130798e-01 -1.3510239124298096e-01</leafValues></_>
        <_>
          <internalNodes>
            0 -1 368 -5.1218096632510424e-04</internalNodes>
          <leafValues>
            2.4005985260009766e-01 -1.6188922524452209e-01</leafValues></_>
        <_>
          <internalNodes>
            0 -1 33 5.1043387502431870e-03</internalNodes>
          <leafValues>
            6.3044488430023193e-02 -4.9969795346260071e-01</leafValues></_>
        <_>
          <internalNodes>
            0 -1 121 -2.2885497659444809e-02</internalNodes>
          <leafValues>
            8.6455053091049194e-01 -4.3352469801902771e-02</leafValues></_>
        <_>
          <internalNodes>
            0 -1 25 7.8533999621868134e-03</internalNodes>
          <leafValues>
            7.4085697531700134e-02 -5.8168506622314453e-01</leafValues></_>
        <_>
          <internalNodes>
            0 -1 138 2.6889056898653507e-03</internalNodes>
          <leafValues>
            -8.1621192395687103e-02 4.2134505510330200e-01</leafValues></_>
        <_>
          <internalNodes>
            0 -1 49 -4.1773877455852926e-04</internalNodes>
          <leafValues>
            -3.7553614377975464e-01 9.7268432378768921e-02</leafValues></_>
        <_>
          <internalNodes>
            0 -1 379 -3.9201695472002029e-03</internalNodes>
          <leafValues>
            -3.8187119364738464e-01 9.4167739152908325e-02</leafValues></_>
        <_>
          <internalNodes>
            0 -1 143 -1.4276845380663872e-02</internalNodes>
          <leafValues>
            5.0333482027053833e-01 -8.5986174643039703e-02</leafValues></_>
        <_>
          <internalNodes>
            0 -1 337 -2.0330185070633888e-03</internalNodes>
          <leafValues>
            -3.4594532847404480e-01 1.0783367604017258e-01</leafValues></_>
        <_>
          <internalNodes>
            0 -1 209 1.2300138361752033e-02</internalNodes>
          <leafValues>
            -5.2381094545125961e-02 7.3449057340621948e-01</leafValues></_>
        <_>
          <internalNodes>
            0 -1 241 1.5142879448831081e-02</internalNodes>
          <leafValues>
            5.8328159153461456e-02 -7.2724831104278564e-01</leafValues></_>
        <_>
          <internalNodes>
            0 -1 21 4.8507535830140114e-03</internalNodes>
          <leafValues>
            -1.6272990405559540e-01 2.2009718418121338e-01</leafValues></_></weakClassifiers></_>
    <!-- stage 7 -->
    <_>
      <maxWeakCount>47</maxWeakCount>
      <stageThreshold>-6.7237019538879395e-01</stageThreshold>
      <weakClassifiers>
        <_>
          <internalNodes>
            0 -1 372 -1.4371636789292097e-03</internalNodes>
          <leafValues>
            -2.2077922523021698e-01 3.9673104882240295e-01</leafValues></_>
        <_>
          <internalNodes>
            0 -1 90 -5.9173163026571274e-02</internalNodes>
          <leafValues>
            4.3332412838935852e-01 -7.5101323425769806e-02</leafValues></_>
        <_>
          <internalNodes>
            0 -1 38 -3.0373991467058659e-03</internalNodes>
          <leafValues>
            -3.0199038982391357e-01 1.1983627825975418e-01</leafValues></_>
        <_>
          <internalNodes>
            0 -1 26 -2.7300134301185608e-02</internalNodes>
          <leafValues>
            3.7974432110786438e-01 -1.0411605983972549e-01</leafValues></_>
        <_>
          <internalNodes>
            0 -1 146 -1.2869304046034813e-02</internalNodes>
          <leafValues>
            5.3322654962539673e-01 -7.6622478663921356e-02</leafValues></_>
        <_>
          <internalNodes>
            0 -1 150 3.9349310100078583e-04</internalNodes>
          <leafValues>
            -2.1923997998237610e-01 2.1382658183574677e-01</leafValues></_>
        <_>
          <internalNodes>
            0 -1 118 3.4040361642837524e-02</internalNodes>
          <leafValues>
            -5.4653383791446686e-02 5.7490575313568115e-01</leafValues></_>
        <_>
          <internalNodes>
            0 -1 272 3.9891563355922699e-03</internalNodes>
          <leafValues>
            -6.6227644681930542e-02 4.4802540540695190e-01</leafValues></_>
        <_>
          <internalNodes>
            0 -1 218 2.9567249584943056e-03</internalNodes>
          <leafValues>
            1.0108429938554764e-01 -3.5377109050750732e-01</leafValues></_>
        <_>
          <internalNodes>
            0 -1 273 -2.0744223147630692e-03</internalNodes>
          <leafValues>
            3.2659950852394104e-01 -1.0884266346693039e-01</leafValues></_>
        <_>
          <internalNodes>
            0 -1 31 2.5739702396094799e-03</internalNodes>
          <leafValues>
            6.9606214761734009e-02 -5.1255452632904053e-01</leafValues></_>
        <_>
          <internalNodes>
            0 -1 192 -5.8514289557933807e-03</internalNodes>
          <leafValues>
            5.2451395988464355e-01 -5.7719882577657700e-02</leafValues></_>
        <_>
          <internalNodes>
            0 -1 383 -1.9477293826639652e-03</internalNodes>
          <leafValues>
            -4.7979179024696350e-01 7.3367938399314880e-02</leafValues></_>
        <_>
          <internalNodes>
            0 -1 197 -2.6382361538708210e-03</internalNodes>
          <leafValues>
            6.4999550580978394e-01 -6.1456076800823212e-02</leafValues></_>
        <_>
          <internalNodes>
            0 -1 59 3.0363881960511208e-03</internalNodes>
          <leafValues>
            -8.6198650300502777e-02 3.8627693057060242e-01</leafValues></_>
        <_>
          <internalNodes>
            0 -1 79 5.3319543600082397e-02</internalNodes>
          <leafValues>
            -5.5760230869054794e-02 6.3214373588562012e-01</leafValues></_>
        <_>
          <internalNodes>
            0 -1 348 -1.1761233508877922e-05</internalNodes>
          <leafValues>
            1.7426159977912903e-01 -2.5361424684524536e-01</leafValues></_>
        <_>
          <internalNodes>
            0 -1 330 -6.1575911240652204e-04</internalNodes>
          <leafValues>
            -2.9543131589889526e-01 1.2024819850921631e-01</leafValues></_>
        <_>
          <internalNodes>
            0 -1 172 1.9748472550418228e-04</internalNodes>
          <leafValues>
            -1.6576497256755829e-01 2.0618163049221039e-01</leafValues></_>
        <_>
          <internalNodes>
            0 -1 191 -1.5584078431129456e-01</internalNodes>
          <leafValues>
            6.5229338407516479e-01 -5.4514519870281219e-02</leafValues></_>
        <_>
          <internalNodes>
            0 -1 382 2.8009744710288942e-04</internalNodes>
          <leafValues>
            -1.2404034286737442e-01 2.6167434453964233e-01</leafValues></_>
        <_>
          <internalNodes>
            0 -1 69 -3.0458373948931694e-02</internalNodes>
          <leafValues>
            2.8663492202758789e-01 -1.1552580446004868e-01</leafValues></_>
        <_>
          <internalNodes>
            0 -1 210 -1.5917763113975525e-02</internalNodes>
          <leafValues>
            2.3811028897762299e-01 -1.3987445831298828e-01</leafValues></_>
        <_>
          <internalNodes>
            0 -1 152 -1.5414470806717873e-02</internalNodes>
          <leafValues>
            3.5151180624961853e-01 -9.4785794615745544e-02</leafValues></_>
        <_>
          <internalNodes>
            0 -1 250 -5.4770736023783684e-03</internalNodes>
          <leafValues>
            -4.6083810925483704e-01 7.4826180934906006e-02</leafValues></_>
        <_>
          <internalNodes>
            0 -1 212 -3.4228810109198093e-03</internalNodes>
          <leafValues>
            4.9561375379562378e-01 -6.8973831832408905e-02</leafValues></_>
        <_>
          <internalNodes>
            0 -1 313 -1.7359414696693420e-01</internalNodes>
          <leafValues>
            -8.5223960876464844e-01 4.3233640491962433e-02</leafValues></_>
        <_>
          <internalNodes>
            0 -1 265 -8.3385710604488850e-04</internalNodes>
          <leafValues>
            -6.5823769569396973e-01 4.7363735735416412e-02</leafValues></_>
        <_>
          <internalNodes>
            0 -1 205 1.8097378779202700e-03</internalNodes>
          <leafValues>
            -8.5544541478157043e-02 4.1522082686424255e-01</leafValues></_>
        <_>
          <internalNodes>
            0 -1 52 1.1225182097405195e-03</internalNodes>
          <leafValues>
            1.2470072507858276e-01 -2.7749454975128174e-01</leafValues></_>
        <_>
          <internalNodes>
            0 -1 216 -2.0564341917634010e-02</internalNodes>
          <leafValues>
            8.5420572757720947e-01 -4.3553724884986877e-02</leafValues></_>
        <_>
          <internalNodes>
            0 -1 327 -1.1510319076478481e-02</internalNodes>
          <leafValues>
            5.0036662817001343e-01 -5.1517609506845474e-02</leafValues></_>
        <_>
          <internalNodes>
            0 -1 249 3.8345158100128174e-03</internalNodes>
          <leafValues>
            7.9070836305618286e-02 -4.1251310706138611e-01</leafValues></_>
        <_>
          <internalNodes>
            0 -1 206 -4.3734256178140640e-03</internalNodes>
          <leafValues>
            4.3791931867599487e-01 -7.2684623301029205e-02</leafValues></_>
        <_>
          <internalNodes>
            0 -1 277 -4.7577790915966034e-02</internalNodes>
          <leafValues>
            -6.4087784290313721e-01 5.1953159272670746e-02</leafValues></_>
        <_>
          <internalNodes>
            0 -1 236 4.3373610242269933e-04</internalNodes>
          <leafValues>
            -1.1796986311674118e-01 2.7573397755622864e-01</leafValues></_>
        <_>
          <internalNodes>
            0 -1 213 -3.9157923310995102e-04</internalNodes>
          <leafValues>
            2.0993186533451080e-01 -1.4649975299835205e-01</leafValues></_>
        <_>
          <internalNodes>
            0 -1 341 6.0400385409593582e-03</internalNodes>
          <leafValues>
            7.9934440553188324e-02 -4.0556925535202026e-01</leafValues></_>
        <_>
          <internalNodes>
            0 -1 33 3.5085203126072884e-03</internalNodes>
          <leafValues>
            7.9669415950775146e-02 -4.2363163828849792e-01</leafValues></_>
        <_>
          <internalNodes>
            0 -1 290 6.8406248465180397e-04</internalNodes>
          <leafValues>
            -1.2783771753311157e-01 2.7678337693214417e-01</leafValues></_>
        <_>
          <internalNodes>
            0 -1 355 5.0241360440850258e-03</internalNodes>
          <leafValues>
            -9.1765329241752625e-02 3.6528471112251282e-01</leafValues></_>
        <_>
          <internalNodes>
            0 -1 318 -1.9078623736277223e-03</internalNodes>
          <leafValues>
            -4.0545427799224854e-01 8.2987852394580841e-02</leafValues></_>
        <_>
          <internalNodes>
            0 -1 65 2.5378342252224684e-04</internalNodes>
          <leafValues>
            -1.6887502372264862e-01 1.9123469293117523e-01</leafValues></_>
        <_>
          <internalNodes>
            0 -1 188 -1.8215883756056428e-04</internalNodes>
          <leafValues>
            2.1746650338172913e-01 -1.4162956178188324e-01</leafValues></_>
        <_>
          <internalNodes>
            0 -1 362 9.0659214183688164e-03</internalNodes>
          <leafValues>
            -4.7187790274620056e-02 6.4531248807907104e-01</leafValues></_>
        <_>
          <internalNodes>
            0 -1 144 -3.1902786577120423e-04</internalNodes>
          <leafValues>
            -2.6032888889312744e-01 1.2998013198375702e-01</leafValues></_>
        <_>
          <internalNodes>
            0 -1 128 8.0197900533676147e-03</internalNodes>
          <leafValues>
            7.5138926506042480e-02 -4.7377455234527588e-01</leafValues></_></weakClassifiers></_>
    <!-- stage 8 -->
    <_>
      <maxWeakCount>43</maxWeakCount>
      <stageThreshold>-5.1817184686660767e-01</stageThreshold>
      <weakClassifiers>
        <_>
          <internalNodes>
            0 -1 43 1.5881609171628952e-02</internalNodes>
          <leafValues>
            3.7695589661598206e-01 -3.1914892792701721e-01</leafValues></_>
        <_>
          <internalNodes>
            0 -1 346 -4.5456634834408760e-03</internalNodes>
          <leafValues>
            3.9674159884452820e-01 -6.0184139758348465e-02</leafValues></_>
        <_>
          <internalNodes>
            0 -1 353 -1.1344965059834067e-05</internalNodes>
          <leafValues>
            1.5666155517101288e-01 -2.0095492899417877e-01</leafValues></_>
        <_>
          <internalNodes>
            0 -1 203 2.6325404178351164e-03</internalNodes>
          <leafValues>
            -1.5894421935081482e-01 2.2760894894599915e-01</leafValues></_>
        <_>
          <internalNodes>
            0 -1 375 8.0329494085162878e-04</internalNodes>
          <leafValues>
            1.1156804114580154e-01 -3.2123354077339172e-01</leafValues></_>
        <_>
          <internalNodes>
            0 -1 345 3.5288815852254629e-03</internalNodes>
          <leafValues>
            -1.3015653192996979e-01 3.2215294241905212e-01</leafValues></_>
        <_>
          <internalNodes>
            0 -1 252 1.8623617943376303e-03</internalNodes>
          <leafValues>
            -7.0920526981353760e-02 3.9182111620903015e-01</leafValues></_>
        <_>
          <internalNodes>
            0 -1 387 -1.1763942893594503e-03</internalNodes>
          <leafValues>
            -2.9642993211746216e-01 1.1613171547651291e-01</leafValues></_>
        <_>
          <internalNodes>
            0 -1 285 3.2697334885597229e-02</internalNodes>
          <leafValues>
            -7.2388425469398499e-02 5.5748158693313599e-01</leafValues></_>
        <_>
          <internalNodes>
            0 -1 166 8.2701137289404869e-03</internalNodes>
          <leafValues>
            8.0709867179393768e-02 -4.4243234395980835e-01</leafValues></_>
        <_>
          <internalNodes>
            0 -1 98 -4.1085076518356800e-03</internalNodes>
          <leafValues>
            3.4711059927940369e-01 -9.8497696220874786e-02</leafValues></_>
        <_>
          <internalNodes>
            0 -1 120 -7.3429390788078308e-02</internalNodes>
          <leafValues>
            3.8459268212318420e-01 -8.7712138891220093e-02</leafValues></_>
        <_>
          <internalNodes>
            0 -1 390 6.5184646518900990e-04</internalNodes>
          <leafValues>
            1.3071168959140778e-01 -2.8557816147804260e-01</leafValues></_>
        <_>
          <internalNodes>
            0 -1 182 -1.5774448402225971e-03</internalNodes>
          <leafValues>
            2.3550617694854736e-01 -1.4166100323200226e-01</leafValues></_>
        <_>
          <internalNodes>
            0 -1 50 3.4673514164751396e-05</internalNodes>
          <leafValues>
            -2.2836033999919891e-01 1.4149691164493561e-01</leafValues></_>
        <_>
          <internalNodes>
            0 -1 201 -1.1344965059834067e-05</internalNodes>
          <leafValues>
            2.2036461532115936e-01 -1.5925610065460205e-01</leafValues></_>
        <_>
          <internalNodes>
            0 -1 75 7.8308850061148405e-04</internalNodes>
          <leafValues>
            9.4021126627922058e-02 -4.0274229645729065e-01</leafValues></_>
        <_>
          <internalNodes>
            0 -1 336 -7.6642343774437904e-03</internalNodes>
          <leafValues>
            3.0244895815849304e-01 -1.1439286172389984e-01</leafValues></_>
        <_>
          <internalNodes>
            0 -1 258 1.4180121012032032e-02</internalNodes>
          <leafValues>
            7.1882501244544983e-02 -4.4759821891784668e-01</leafValues></_>
        <_>
          <internalNodes>
            0 -1 170 -4.8142960295081139e-03</internalNodes>
          <leafValues>
            3.4044453501701355e-01 -9.1789044439792633e-02</leafValues></_>
        <_>
          <internalNodes>
            0 -1 129 6.2576942145824432e-03</internalNodes>
          <leafValues>
            -1.6039818525314331e-01 2.3843091726303101e-01</leafValues></_>
        <_>
          <internalNodes>
            0 -1 3 -3.1003106385469437e-02</internalNodes>
          <leafValues>
            1.7609643936157227e-01 -2.1808303892612457e-01</leafValues></_>
        <_>
          <internalNodes>
            0 -1 101 5.5102165788412094e-03</internalNodes>
          <leafValues>
            -7.5701437890529633e-02 4.5068114995956421e-01</leafValues></_>
        <_>
          <internalNodes>
            0 -1 246 -3.5600244998931885e-02</internalNodes>
          <leafValues>
            7.4088191986083984e-01 -3.9113666862249374e-02</leafValues></_>
        <_>
          <internalNodes>
            0 -1 299 2.4447892792522907e-03</internalNodes>
          <leafValues>
            -1.0144216567277908e-01 2.9166114330291748e-01</leafValues></_>
        <_>
          <internalNodes>
            0 -1 62 8.1878161290660501e-04</internalNodes>
          <leafValues>
            9.9890306591987610e-02 -3.1120350956916809e-01</leafValues></_>
        <_>
          <internalNodes>
            0 -1 51 -3.5022115707397461e-01</internalNodes>
          <leafValues>
            -5.9067386388778687e-01 5.6043032556772232e-02</leafValues></_>
        <_>
          <internalNodes>
            0 -1 315 -3.7182453088462353e-03</internalNodes>
          <leafValues>
            8.5323029756546021e-01 -4.5265994966030121e-02</leafValues></_>
        <_>
          <internalNodes>
            0 -1 66 5.1642586477100849e-03</internalNodes>
          <leafValues>
            4.9128260463476181e-02 -7.6329660415649414e-01</leafValues></_>
        <_>
          <internalNodes>
            0 -1 169 1.4468291192315519e-04</internalNodes>
          <leafValues>
            -1.8374796211719513e-01 1.6106267273426056e-01</leafValues></_>
        <_>
          <internalNodes>
            0 -1 326 2.2573038004338741e-03</internalNodes>
          <leafValues>
            -4.7805357724428177e-02 6.7773604393005371e-01</leafValues></_>
        <_>
          <internalNodes>
            0 -1 221 6.1157019808888435e-03</internalNodes>
          <leafValues>
            6.4061440527439117e-02 -5.5518358945846558e-01</leafValues></_>
        <_>
          <internalNodes>
            0 -1 35 -1.3809057418256998e-03</internalNodes>
          <leafValues>
            -1.9267177581787109e-01 1.7225196957588196e-01</leafValues></_>
        <_>
          <internalNodes>
            0 -1 153 -4.5066000893712044e-03</internalNodes>
          <leafValues>
            3.8235422968864441e-01 -9.6329666674137115e-02</leafValues></_>
        <_>
          <internalNodes>
            0 -1 357 -6.1182957142591476e-04</internalNodes>
          <leafValues>
            -1.9792459905147552e-01 1.6132192313671112e-01</leafValues></_>
        <_>
          <internalNodes>
            0 -1 371 -2.1915834397077560e-02</internalNodes>
          <leafValues>
            1.3396397233009338e-01 -2.4952663481235504e-01</leafValues></_>
        <_>
          <internalNodes>
            0 -1 154 -2.3781633935868740e-03</internalNodes>
          <leafValues>
            3.9923080801963806e-01 -8.7428733706474304e-02</leafValues></_>
        <_>
          <internalNodes>
            0 -1 253 9.9027517717331648e-04</internalNodes>
          <leafValues>
            -1.4486031234264374e-01 2.2370059788227081e-01</leafValues></_>
        <_>
          <internalNodes>
            0 -1 92 3.2927207648754120e-03</internalNodes>
          <leafValues>
            -8.9627668261528015e-02 3.5141411423683167e-01</leafValues></_>
        <_>
          <internalNodes>
            0 -1 158 2.5041965767741203e-02</internalNodes>
          <leafValues>
            -3.7915624678134918e-02 8.5984402894973755e-01</leafValues></_>
        <_>
          <internalNodes>
            0 -1 306 1.3738784473389387e-03</internalNodes>
          <leafValues>
            -1.6367596387863159e-01 2.2124008834362030e-01</leafValues></_>
        <_>
          <internalNodes>
            0 -1 319 6.0216552810743451e-04</internalNodes>
          <leafValues>
            1.0896177589893341e-01 -3.4852755069732666e-01</leafValues></_>
        <_>
          <internalNodes>
            0 -1 194 -3.6906418390572071e-03</internalNodes>
          <leafValues>
            6.7760717868804932e-01 -5.4153297096490860e-02</leafValues></_></weakClassifiers></_>
    <!-- stage 9 -->
    <_>
      <maxWeakCount>50</maxWeakCount>
      <stageThreshold>-5.4108822345733643e-01</stageThreshold>
      <weakClassifiers>
        <_>
          <internalNodes>
            0 -1 369 5.0041568465530872e-04</internalNodes>
          <leafValues>
            3.9061370491981506e-01 -3.5652172565460205e-01</leafValues></_>
        <_>
          <internalNodes>
            0 -1 217 1.4071183279156685e-02</internalNodes>
          <leafValues>
            7.0121712982654572e-02 -6.5185028314590454e-01</leafValues></_>
        <_>
          <internalNodes>
            0 -1 304 -1.5180834452621639e-04</internalNodes>
          <leafValues>
            1.3946580886840820e-01 -2.1487188339233398e-01</leafValues></_>
        <_>
          <internalNodes>
            0 -1 367 -3.5896874032914639e-04</internalNodes>
          <leafValues>
            -2.9891613125801086e-01 9.6601091325283051e-02</leafValues></_>
        <_>
          <internalNodes>
            0 -1 183 4.0850127115845680e-03</internalNodes>
          <leafValues>
            -2.9333028942346573e-02 7.1769607067108154e-01</leafValues></_>
        <_>
          <internalNodes>
            0 -1 113 7.5647503137588501e-02</internalNodes>
          <leafValues>
            2.8798334300518036e-02 -7.3261845111846924e-01</leafValues></_>
        <_>
          <internalNodes>
            0 -1 107 -2.1000962704420090e-02</internalNodes>
          <leafValues>
            -7.9334765672683716e-01 3.2464031130075455e-02</leafValues></_>
        <_>
          <internalNodes>
            0 -1 301 5.2731279283761978e-03</internalNodes>
          <leafValues>
            5.4810769855976105e-02 -4.4974416494369507e-01</leafValues></_>
        <_>
          <internalNodes>
            0 -1 195 3.8687676191329956e-02</internalNodes>
          <leafValues>
            -4.7326620668172836e-02 6.6905927658081055e-01</leafValues></_>
        <_>
          <internalNodes>
            0 -1 282 -1.6681909328326583e-03</internalNodes>
          <leafValues>
            2.7971744537353516e-01 -9.4648204743862152e-02</leafValues></_>
        <_>
          <internalNodes>
            0 -1 5 -4.3064188957214355e-01</internalNodes>
          <leafValues>
            3.5916477441787720e-01 -8.5509538650512695e-02</leafValues></_>
        <_>
          <internalNodes>
            0 -1 193 -3.0917953699827194e-02</internalNodes>
          <leafValues>
            4.6206191182136536e-01 -7.3708020150661469e-02</leafValues></_>
        <_>
          <internalNodes>
            0 -1 276 3.6067175678908825e-03</internalNodes>
          <leafValues>
            -1.2088328599929810e-01 2.7666693925857544e-01</leafValues></_>
        <_>
          <internalNodes>
            0 -1 100 -1.3757154345512390e-01</internalNodes>
          <leafValues>
            4.3787887692451477e-01 -6.9952763617038727e-02</leafValues></_>
        <_>
          <internalNodes>
            0 -1 177 -1.9479866605252028e-03</internalNodes>
          <leafValues>
            2.7129483222961426e-01 -1.0330078750848770e-01</leafValues></_>
        <_>
          <internalNodes>
            0 -1 0 6.3474196940660477e-04</internalNodes>
          <leafValues>
            5.3254831582307816e-02 -5.1719236373901367e-01</leafValues></_>
        <_>
          <internalNodes>
            0 -1 294 1.2179417535662651e-03</internalNodes>
          <leafValues>
            -1.4599820971488953e-01 1.9617335498332977e-01</leafValues></_>
        <_>
          <internalNodes>
            0 -1 324 3.7876293063163757e-02</internalNodes>
          <leafValues>
            4.7188054770231247e-02 -6.6359114646911621e-01</leafValues></_>
        <_>
          <internalNodes>
            0 -1 180 -1.0623420821502805e-03</internalNodes>
          <leafValues>
            3.4288981556892395e-01 -8.7498664855957031e-02</leafValues></_>
        <_>
          <internalNodes>
            0 -1 73 -1.6424141824245453e-02</internalNodes>
          <leafValues>
            -3.7772569060325623e-01 7.6443009078502655e-02</leafValues></_>
        <_>
          <internalNodes>
            0 -1 23 -5.5605656234547496e-04</internalNodes>
          <leafValues>
            -3.3807754516601563e-01 7.6576016843318939e-02</leafValues></_>
        <_>
          <internalNodes>
            0 -1 71 2.8492538258433342e-03</internalNodes>
          <leafValues>
            -1.1516195535659790e-01 2.4660871922969818e-01</leafValues></_>
        <_>
          <internalNodes>
            0 -1 239 -2.4874713271856308e-03</internalNodes>
          <leafValues>
            5.3601002693176270e-01 -4.9215771257877350e-02</leafValues></_>
        <_>
          <internalNodes>
            0 -1 34 -8.8240504264831543e-03</internalNodes>
          <leafValues>
            2.4900726974010468e-01 -1.0651089251041412e-01</leafValues></_>
        <_>
          <internalNodes>
            0 -1 245 3.9786561392247677e-03</internalNodes>
          <leafValues>
            -7.2503849864006042e-02 4.1269344091415405e-01</leafValues></_>
        <_>
          <internalNodes>
            0 -1 350 -1.9234293722547591e-04</internalNodes>
          <leafValues>
            -1.9989027082920074e-01 1.5019012987613678e-01</leafValues></_>
        <_>
          <internalNodes>
            0 -1 211 -5.8576534502208233e-03</internalNodes>
          <leafValues>
            2.8181684017181396e-01 -1.0308901220560074e-01</leafValues></_>
        <_>
          <internalNodes>
            0 -1 354 -1.2013107538223267e-02</internalNodes>
          <leafValues>
            -4.8599606752395630e-01 6.6281117498874664e-02</leafValues></_>
        <_>
          <internalNodes>
            0 -1 68 3.0030282214283943e-03</internalNodes>
          <leafValues>
            7.0395894348621368e-02 -4.2435979843139648e-01</leafValues></_>
        <_>
          <internalNodes>
            0 -1 333 -9.7930454649031162e-04</internalNodes>
          <leafValues>
            2.9533186554908752e-01 -9.8208762705326080e-02</leafValues></_>
        <_>
          <internalNodes>
            0 -1 262 -4.7594066709280014e-03</internalNodes>
          <leafValues>
            2.1826145052909851e-01 -1.2740874290466309e-01</leafValues></_>
        <_>
          <internalNodes>
            0 -1 320 5.9302919544279575e-03</internalNodes>
          <leafValues>
            5.4928887635469437e-02 -5.3443062305450439e-01</leafValues></_>
        <_>
          <internalNodes>
            0 -1 83 8.4252748638391495e-03</internalNodes>
          <leafValues>
            -9.0216122567653656e-02 3.4640201926231384e-01</leafValues></_>
        <_>
          <internalNodes>
            0 -1 344 1.8452525546308607e-04</internalNodes>
          <leafValues>
            -1.1671172082424164e-01 2.4088488519191742e-01</leafValues></_>
        <_>
          <internalNodes>
            0 -1 64 6.8561341613531113e-03</internalNodes>
          <leafValues>
            5.8549121022224426e-02 -4.8937562108039856e-01</leafValues></_>
        <_>
          <internalNodes>
            0 -1 13 -8.1681704614311457e-04</internalNodes>
          <leafValues>
            -3.7183132767677307e-01 7.7929317951202393e-02</leafValues></_>
        <_>
          <internalNodes>
            0 -1 110 -8.5890248417854309e-02</internalNodes>
          <leafValues>
            8.6316525936126709e-01 -3.8468327373266220e-02</leafValues></_>
        <_>
          <internalNodes>
            0 -1 67 -1.9990245345979929e-03</internalNodes>
          <leafValues>
            -3.8919416069984436e-01 8.1462994217872620e-02</leafValues></_>
        <_>
          <internalNodes>
            0 -1 220 1.1556616518646479e-03</internalNodes>
          <leafValues>
            1.0388194769620895e-01 -2.7176499366760254e-01</leafValues></_>
        <_>
          <internalNodes>
            0 -1 125 4.7376849688589573e-03</internalNodes>
          <leafValues>
            -9.9635474383831024e-02 2.6922452449798584e-01</leafValues></_>
        <_>
          <internalNodes>
            0 -1 94 1.6321112634614110e-03</internalNodes>
          <leafValues>
            -1.1548122018575668e-01 2.4362543225288391e-01</leafValues></_>
        <_>
          <internalNodes>
            0 -1 361 6.7916180705651641e-04</internalNodes>
          <leafValues>
            -1.3489459455013275e-01 2.1428850293159485e-01</leafValues></_>
        <_>
          <internalNodes>
            0 -1 232 1.0240019764751196e-03</internalNodes>
          <leafValues>
            7.5160808861255646e-02 -4.0243014693260193e-01</leafValues></_>
        <_>
          <internalNodes>
            0 -1 310 -9.4157745479606092e-05</internalNodes>
          <leafValues>
            2.0691603422164917e-01 -1.3535954058170319e-01</leafValues></_>
        <_>
          <internalNodes>
            0 -1 196 -1.4936073966964614e-05</internalNodes>
          <leafValues>
            1.6150096058845520e-01 -1.9046381115913391e-01</leafValues></_>
        <_>
          <internalNodes>
            0 -1 141 1.3556461781263351e-03</internalNodes>
          <leafValues>
            1.4099498093128204e-01 -2.0811195671558380e-01</leafValues></_>
        <_>
          <internalNodes>
            0 -1 334 -6.6631481051445007e-02</internalNodes>
          <leafValues>
            -5.8996689319610596e-01 5.2095517516136169e-02</leafValues></_>
        <_>
          <internalNodes>
            0 -1 278 8.7563209235668182e-02</internalNodes>
          <leafValues>
            -1.0977720469236374e-01 3.3855310082435608e-01</leafValues></_>
        <_>
          <internalNodes>
            0 -1 351 1.5624858206138015e-03</internalNodes>
          <leafValues>
            7.7466510236263275e-02 -4.2785900831222534e-01</leafValues></_>
        <_>
          <internalNodes>
            0 -1 360 1.8699771026149392e-03</internalNodes>
          <leafValues>
            -1.2219452112913132e-01 2.5814297795295715e-01</leafValues></_></weakClassifiers></_>
    <!-- stage 10 -->
    <_>
      <maxWeakCount>45</maxWeakCount>
      <stageThreshold>-5.6007373332977295e-01</stageThreshold>
      <weakClassifiers>
        <_>
          <internalNodes>
            0 -1 323 1.1651325039565563e-02</internalNodes>
          <leafValues>
            3.7166899442672729e-01 -4.0540540218353271e-01</leafValues></_>
        <_>
          <internalNodes>
            0 -1 284 2.8619752265512943e-03</internalNodes>
          <leafValues>
            -1.1507147923111916e-02 6.0806584358215332e-01</leafValues></_>
        <_>
          <internalNodes>
            0 -1 228 -1.1722966097295284e-02</internalNodes>
          <leafValues>
            2.1894520521163940e-01 -1.7116922140121460e-01</leafValues></_>
        <_>
          <internalNodes>
            0 -1 381 3.7688933662138879e-04</internalNodes>
          <leafValues>
            -1.2100304663181305e-01 2.4117447435855865e-01</leafValues></_>
        <_>
          <internalNodes>
            0 -1 356 1.5246781986206770e-03</internalNodes>
          <leafValues>
            1.0787257552146912e-01 -3.1560850143432617e-01</leafValues></_>
        <_>
          <internalNodes>
            0 -1 116 3.6531062796711922e-03</internalNodes>
          <leafValues>
            -1.2848688662052155e-01 2.7857735753059387e-01</leafValues></_>
        <_>
          <internalNodes>
            0 -1 63 -1.1753858067095280e-02</internalNodes>
          <leafValues>
            3.4193471074104309e-01 -8.1845812499523163e-02</leafValues></_>
        <_>
          <internalNodes>
            0 -1 332 1.2371979653835297e-02</internalNodes>
          <leafValues>
            6.6813088953495026e-02 -5.0858867168426514e-01</leafValues></_>
        <_>
          <internalNodes>
            0 -1 102 3.7470585666596889e-03</internalNodes>
          <leafValues>
            1.3438726961612701e-01 -2.0964170992374420e-01</leafValues></_>
        <_>
          <internalNodes>
            0 -1 139 2.7123253792524338e-02</internalNodes>
          <leafValues>
            -9.3388393521308899e-02 3.4292089939117432e-01</leafValues></_>
        <_>
          <internalNodes>
            0 -1 385 -1.3867239467799664e-03</internalNodes>
          <leafValues>
            -3.1818339228630066e-01 9.4163715839385986e-02</leafValues></_>
        <_>
          <internalNodes>
            0 -1 124 -8.8489465415477753e-03</internalNodes>
          <leafValues>
            4.7772231698036194e-01 -6.2646016478538513e-02</leafValues></_>
        <_>
          <internalNodes>
            0 -1 29 -2.3576965555548668e-02</internalNodes>
          <leafValues>
            5.3593802452087402e-01 -5.2497472614049911e-02</leafValues></_>
        <_>
          <internalNodes>
            0 -1 297 9.2221843078732491e-04</internalNodes>
          <leafValues>
            -6.7403562366962433e-02 3.9793235063552856e-01</leafValues></_>
        <_>
          <internalNodes>
            0 -1 54 -1.6538499039597809e-04</internalNodes>
          <leafValues>
            -2.4737772345542908e-01 1.1998441815376282e-01</leafValues></_>
        <_>
          <internalNodes>
            0 -1 339 -2.5405851192772388e-03</internalNodes>
          <leafValues>
            -3.9300853013992310e-01 7.8941777348518372e-02</leafValues></_>
        <_>
          <internalNodes>
            0 -1 298 -1.5551657415926456e-03</internalNodes>
          <leafValues>
            2.5404018163681030e-01 -1.1840441077947617e-01</leafValues></_>
        <_>
          <internalNodes>
            0 -1 190 1.6812730580568314e-02</internalNodes>
          <leafValues>
            3.8305476307868958e-02 -8.0357730388641357e-01</leafValues></_>
        <_>
          <internalNodes>
            0 -1 199 8.8158616563305259e-05</internalNodes>
          <leafValues>
            -1.1815837025642395e-01 2.7116030454635620e-01</leafValues></_>
        <_>
          <internalNodes>
            0 -1 219 3.8674842566251755e-02</internalNodes>
          <leafValues>
            4.6064808964729309e-02 -6.7382818460464478e-01</leafValues></_>
        <_>
          <internalNodes>
            0 -1 131 3.8009523414075375e-03</internalNodes>
          <leafValues>
            -1.4009176194667816e-01 2.4818289279937744e-01</leafValues></_>
        <_>
          <internalNodes>
            0 -1 15 1.6680494882166386e-03</internalNodes>
          <leafValues>
            1.1851756274700165e-01 -2.6227474212646484e-01</leafValues></_>
        <_>
          <internalNodes>
            0 -1 377 -2.6629534550011158e-03</internalNodes>
          <leafValues>
            -3.3358606696128845e-01 1.0063440352678299e-01</leafValues></_>
        <_>
          <internalNodes>
            0 -1 247 -3.0173202976584435e-03</internalNodes>
          <leafValues>
            5.9150713682174683e-01 -5.2757140249013901e-02</leafValues></_>
        <_>
          <internalNodes>
            0 -1 259 -1.5850730240345001e-02</internalNodes>
          <leafValues>
            2.3307262361049652e-01 -1.3415582478046417e-01</leafValues></_>
        <_>
          <internalNodes>
            0 -1 292 -3.8198207039386034e-04</internalNodes>
          <leafValues>
            2.9042336344718933e-01 -1.1724632233381271e-01</leafValues></_>
        <_>
          <internalNodes>
            0 -1 84 -1.0371259850217029e-04</internalNodes>
          <leafValues>
            2.9279157519340515e-01 -1.0805236548185349e-01</leafValues></_>
        <_>
          <internalNodes>
            0 -1 22 -8.0270273610949516e-04</internalNodes>
          <leafValues>
            -3.7747812271118164e-01 8.8616110384464264e-02</leafValues></_>
        <_>
          <internalNodes>
            0 -1 373 -1.0855991858989000e-03</internalNodes>
          <leafValues>
            -7.0974278450012207e-01 4.2089868336915970e-02</leafValues></_>
        <_>
          <internalNodes>
            0 -1 30 -8.3648888394236565e-03</internalNodes>
          <leafValues>
            -7.6346695423126221e-01 4.1214294731616974e-02</leafValues></_>
        <_>
          <internalNodes>
            0 -1 314 3.2726684585213661e-03</internalNodes>
          <leafValues>
            -8.0103807151317596e-02 4.3098205327987671e-01</leafValues></_>
        <_>
          <internalNodes>
            0 -1 133 1.8798772944137454e-03</internalNodes>
          <leafValues>
            -8.0449163913726807e-02 3.8612693548202515e-01</leafValues></_>
        <_>
          <internalNodes>
            0 -1 78 8.8143814355134964e-03</internalNodes>
          <leafValues>
            -9.6192613244056702e-02 3.0702123045921326e-01</leafValues></_>
        <_>
          <internalNodes>
            0 -1 248 -1.6447788802906871e-03</internalNodes>
          <leafValues>
            -3.9641976356506348e-01 8.3157055079936981e-02</leafValues></_>
        <_>
          <internalNodes>
            0 -1 231 1.3147979974746704e-02</internalNodes>
          <leafValues>
            5.1869764924049377e-02 -6.8413406610488892e-01</leafValues></_>
        <_>
          <internalNodes>
            0 -1 234 1.2537266593426466e-04</internalNodes>
          <leafValues>
            -1.7171971499919891e-01 1.7962855100631714e-01</leafValues></_>
        <_>
          <internalNodes>
            0 -1 88 1.0203174315392971e-04</internalNodes>
          <leafValues>
            -1.3698425889015198e-01 2.2734907269477844e-01</leafValues></_>
        <_>
          <internalNodes>
            0 -1 279 5.1211682148277760e-04</internalNodes>
          <leafValues>
            -1.5260352194309235e-01 1.9905649125576019e-01</leafValues></_>
        <_>
          <internalNodes>
            0 -1 97 -2.5998137425631285e-04</internalNodes>
          <leafValues>
            -2.7437359094619751e-01 1.2052803486585617e-01</leafValues></_>
        <_>
          <internalNodes>
            0 -1 376 9.5558594912290573e-03</internalNodes>
          <leafValues>
            5.8096755295991898e-02 -5.8574515581130981e-01</leafValues></_>
        <_>
          <internalNodes>
            0 -1 157 -1.1661563767120242e-03</internalNodes>
          <leafValues>
            2.6906129717826843e-01 -1.3051319122314453e-01</leafValues></_>
        <_>
          <internalNodes>
            0 -1 374 3.3047299832105637e-02</internalNodes>
          <leafValues>
            5.4266240447759628e-02 -5.9986346960067749e-01</leafValues></_>
        <_>
          <internalNodes>
            0 -1 317 -1.3304663822054863e-02</internalNodes>
          <leafValues>
            3.8128367066383362e-01 -9.3335688114166260e-02</leafValues></_>
        <_>
          <internalNodes>
            0 -1 347 3.5440182546153665e-04</internalNodes>
          <leafValues>
            -1.3152445852756500e-01 2.6625058054924011e-01</leafValues></_>
        <_>
          <internalNodes>
            0 -1 117 -1.5349814202636480e-03</internalNodes>
          <leafValues>
            1.9366592168807983e-01 -1.4991116523742676e-01</leafValues></_></weakClassifiers></_></stages>
  <features>
    <_>
      <rects>
        <_>
          0 0 2 1 -1.</_>
        <_>
          1 0 1 1 2.</_></rects>
      <tilted>0</tilted></_>
    <_>
      <rects>
        <_>
          0 0 1 2 -1.</_>
        <_>
          0 1 1 1 2.</_></rects>
      <tilted>0</tilted></_>
    <_>
      <rects>
        <_>
          0 0 4 1 -1.</_>
        <_>
          2 0 2 1 2.</_></rects>
      <tilted>0</tilted></_>
    <_>
      <rects>
        <_>
          0 0 2 22 -1.</_>
        <_>
          0 11 2 11 2.</_></rects>
      <tilted>0</tilted></_>
    <_>
      <rects>
        <_>
          0 0 10 1 -1.</_>
        <_>
          5 0 5 1 2.</_></rects>
      <tilted>0</tilted></_>
    <_>
      <rects>
        <_>
          0 0 15 20 -1.</_>
        <_>
          0 10 15 10 2.</_></rects>
      <tilted>0</tilted></_>
    <_>
      <rects>
        <_>
          0 1 1 3 -1.</_>
        <_>
          0 2 1 1 3.</_></rects>
      <tilted>0</tilted></_>
    <_>
      <rects>
        <_>
          0 2 6 4 -1.</_>
        <_>
          0 2 3 2 2.</_>
        <_>
          3 4 3 2 2.</_></rects>
      <tilted>0</tilted></_>
    <_>
      <rects>
        <_>
          0 2 3 22 -1.</_>
        <_>
          0 13 3 11 2.</_></rects>
      <tilted>0</tilted></_>
    <_>
      <rects>
        <_>
          0 2 4 4 -1.</_>
        <_>
          0 4 4 2 2.</_></rects>
      <tilted>0</tilted></_>
    <_>
      <rects>
        <_>
          0 3 18 21 -1.</_>
        <_>
          9 3 9 21 2.</_></rects>
      <tilted>0</tilted></_>
    <_>
      <rects>
        <_>
          0 4 1 2 -1.</_>
        <_>
          0 5 1 1 2.</_></rects>
      <tilted>0</tilted></_>
    <_>
      <rects>
        <_>
          0 4 2 2 -1.</_>
        <_>
          0 5 2 1 2.</_></rects>
      <tilted>0</tilted></_>
    <_>
      <rects>
        <_>
          0 5 2 3 -1.</_>
        <_>
          1 5 1 3 2.</_></rects>
      <tilted>0</tilted></_>
    <_>
      <rects>
        <_>
          0 5 2 6 -1.</_>
        <_>
          1 5 1 6 2.</_></rects>
      <tilted>0</tilted></_>
    <_>
      <rects>
        <_>
          0 5 2 8 -1.</_>
        <_>
          1 5 1 8 2.</_></rects>
      <tilted>0</tilted></_>
    <_>
      <rects>
        <_>
          0 6 1 2 -1.</_>
        <_>
          0 7 1 1 2.</_></rects>
      <tilted>0</tilted></_>
    <_>
      <rects>
        <_>
          0 6 8 6 -1.</_>
        <_>
          0 8 8 2 3.</_></rects>
      <tilted>0</tilted></_>
    <_>
      <rects>
        <_>
          0 6 18 18 -1.</_>
        <_>
          0 15 18 9 2.</_></rects>
      <tilted>0</tilted></_>
    <_>
      <rects>
        <_>
          0 7 24 17 -1.</_>
        <_>
          12 7 12 17 2.</_></rects>
      <tilted>0</tilted></_>
    <_>
      <rects>
        <_>
          0 8 1 2 -1.</_>
        <_>
          0 9 1 1 2.</_></rects>
      <tilted>0</tilted></_>
    <_>
      <rects>
        <_>
          0 8 10 4 -1.</_>
        <_>
          5 8 5 4 2.</_></rects>
      <tilted>0</tilted></_>
    <_>
      <rects>
        <_>
          0 9 1 2 -1.</_>
        <_>
          0 10 1 1 2.</_></rects>
      <tilted>0</tilted></_>
    <_>
      <rects>
        <_>
          0 10 2 1 -1.</_>
        <_>
          1 10 1 1 2.</_></rects>
      <tilted>0</tilted></_>
    <_>
      <rects>
        <_>
          0 12 24 8 -1.</_>
        <_>
          0 16 24 4 2.</_></rects>
      <tilted>0</tilted></_>
    <_>
      <rects>
        <_>
          0 13 1 9 -1.</_>
        <_>
          0 16 1 3 3.</_></rects>
      <tilted>0</tilted></_>
    <_>
      <rects>
        <_>
          0 13 12 8 -1.</_>
        <_>
          4 13 4 8 3.</_></rects>
      <tilted>0</tilted></_>
    <_>
      <rects>
        <_>
          0 14 8 3 -1.</_>
        <_>
          4 14 4 3 2.</_></rects>
      <tilted>0</tilted></_>
    <_>
      <rects>
        <_>
          0 15 11 6 -1.</_>
        <_>
          0 17 11 2 3.</_></rects>
      <tilted>0</tilted></_>
    <_>
      <rects>
        <_>
          0 15 24 2 -1.</_>
        <_>
          0 16 24 1 2.</_></rects>
      <tilted>0</tilted></_>
    <_>
      <rects>
        <_>
          0 16 1 6 -1.</_>
        <_>
          0 18 1 2 3.</_></rects>
      <tilted>0</tilted></_>
    <_>
      <rects>
        <_>
          0 17 1 4 -1.</_>
        <_>
          0 19 1 2 2.</_></rects>
      <tilted>0</tilted></_>
    <_>
      <rects>
        <_>
          0 18 15 4 -1.</_>
        <_>
          5 18 5 4 3.</_></rects>
      <tilted>0</tilted></_>
    <_>
      <rects>
        <_>
          0 19 2 4 -1.</_>
        <_>
          0 21 2 2 2.</_></rects>
      <tilted>0</tilted></_>
    <_>
      <rects>
        <_>
          0 19 18 3 -1.</_>
        <_>
          6 19 6 3 3.</_></rects>
      <tilted>0</tilted></_>
    <_>
      <rects>
        <_>
          0 19 24 3 -1.</_>
        <_>
          12 19 12 3 2.</_></rects>
      <tilted>0</tilted></_>
    <_>
      <rects>
        <_>
          0 20 18 4 -1.</_>
        <_>
          9 20 9 4 2.</_></rects>
      <tilted>0</tilted></_>
    <_>
      <rects>
        <_>
          0 21 20 2 -1.</_>
        <_>
          0 21 10 1 2.</_>
        <_>
          10 22 10 1 2.</_></rects>
      <tilted>0</tilted></_>
    <_>
      <rects>
        <_>
          0 22 9 2 -1.</_>
        <_>
          3 22 3 2 3.</_></rects>
      <tilted>0</tilted></_>
    <_>
      <rects>
        <_>
          0 22 6 2 -1.</_>
        <_>
          0 23 6 1 2.</_></rects>
      <tilted>0</tilted></_>
    <_>
      <rects>
        <_>
          0 22 7 2 -1.</_>
        <_>
          0 23 7 1 2.</_></rects>
      <tilted>0</tilted></_>
    <_>
      <rects>
        <_>
          0 23 6 1 -1.</_>
        <_>
          3 23 3 1 2.</_></rects>
      <tilted>0</tilted></_>
    <_>
      <rects>
        <_>
          0 23 12 1 -1.</_>
        <_>
          4 23 4 1 3.</_></rects>
      <tilted>0</tilted></_>
    <_>
      <rects>
        <_>
          0 23 20 1 -1.</_>
        <_>
          10 23 10 1 2.</_></rects>
      <tilted>0</tilted></_>
    <_>
      <rects>
        <_>
          0 23 24 1 -1.</_>
        <_>
          12 23 12 1 2.</_></rects>
      <tilted>0</tilted></_>
    <_>
      <rects>
        <_>
          1 0 7 24 -1.</_>
        <_>
          1 12 7 12 2.</_></rects>
      <tilted>0</tilted></_>
    <_>
      <rects>
        <_>
          1 1 4 2 -1.</_>
        <_>
          3 1 2 2 2.</_></rects>
      <tilted>0</tilted></_>
    <_>
      <rects>
        <_>
          1 1 6 2 -1.</_>
        <_>
          4 1 3 2 2.</_></rects>
      <tilted>0</tilted></_>
    <_>
      <rects>
        <_>
          1 1 18 7 -1.</_>
        <_>
          10 1 9 7 2.</_></rects>
      <tilted>0</tilted></_>
    <_>
      <rects>
        <_>
          1 2 1 2 -1.</_>
        <_>
          1 3 1 1 2.</_></rects>
      <tilted>0</tilted></_>
    <_>
      <rects>
        <_>
          1 2 10 1 -1.</_>
        <_>
          6 2 5 1 2.</_></rects>
      <tilted>0</tilted></_>
    <_>
      <rects>
        <_>
          1 3 10 20 -1.</_>
        <_>
          1 13 10 10 2.</_></rects>
      <tilted>0</tilted></_>
    <_>
      <rects>
        <_>
          1 4 1 6 -1.</_>
        <_>
          1 6 1 2 3.</_></rects>
      <tilted>0</tilted></_>
    <_>
      <rects>
        <_>
          1 4 2 3 -1.</_>
        <_>
          2 4 1 3 2.</_></rects>
      <tilted>0</tilted></_>
    <_>
      <rects>
        <_>
          1 5 1 2 -1.</_>
        <_>
          1 6 1 1 2.</_></rects>
      <tilted>0</tilted></_>
    <_>
      <rects>
        <_>
          1 7 2 2 -1.</_>
        <_>
          1 8 2 1 2.</_></rects>
      <tilted>0</tilted></_>
    <_>
      <rects>
        <_>
          1 7 10 1 -1.</_>
        <_>
          6 7 5 1 2.</_></rects>
      <tilted>0</tilted></_>
    <_>
      <rects>
        <_>
          1 8 3 15 -1.</_>
        <_>
          2 8 1 15 3.</_></rects>
      <tilted>0</tilted></_>
    <_>
      <rects>
        <_>
          1 8 6 12 -1.</_>
        <_>
          1 8 3 6 2.</_>
        <_>
          4 14 3 6 2.</_></rects>
      <tilted>0</tilted></_>
    <_>
      <rects>
        <_>
          1 10 3 5 -1.</_>
        <_>
          2 10 1 5 3.</_></rects>
      <tilted>0</tilted></_>
    <_>
      <rects>
        <_>
          1 11 2 1 -1.</_>
        <_>
          2 11 1 1 2.</_></rects>
      <tilted>0</tilted></_>
    <_>
      <rects>
        <_>
          1 13 3 9 -1.</_>
        <_>
          2 13 1 9 3.</_></rects>
      <tilted>0</tilted></_>
    <_>
      <rects>
        <_>
          1 14 2 2 -1.</_>
        <_>
          2 14 1 2 2.</_></rects>
      <tilted>0</tilted></_>
    <_>
      <rects>
        <_>
          1 14 9 4 -1.</_>
        <_>
          4 14 3 4 3.</_></rects>
      <tilted>0</tilted></_>
    <_>
      <rects>
        <_>
          1 15 1 9 -1.</_>
        <_>
          1 18 1 3 3.</_></rects>
      <tilted>0</tilted></_>
    <_>
      <rects>
        <_>
          1 16 6 4 -1.</_>
        <_>
          1 16 3 2 2.</_>
        <_>
          4 18 3 2 2.</_></rects>
      <tilted>0</tilted></_>
    <_>
      <rects>
        <_>
          1 22 6 2 -1.</_>
        <_>
          1 22 3 1 2.</_>
        <_>
          4 23 3 1 2.</_></rects>
      <tilted>0</tilted></_>
    <_>
      <rects>
        <_>
          1 23 6 1 -1.</_>
        <_>
          4 23 3 1 2.</_></rects>
      <tilted>0</tilted></_>
    <_>
      <rects>
        <_>
          1 23 9 1 -1.</_>
        <_>
          4 23 3 1 3.</_></rects>
      <tilted>0</tilted></_>
    <_>
      <rects>
        <_>
          2 0 1 22 -1.</_>
        <_>
          2 11 1 11 2.</_></rects>
      <tilted>0</tilted></_>
    <_>
      <rects>
        <_>
          2 1 18 1 -1.</_>
        <_>
          8 1 6 1 3.</_></rects>
      <tilted>0</tilted></_>
    <_>
      <rects>
        <_>
          2 2 3 14 -1.</_>
        <_>
          3 2 1 14 3.</_></rects>
      <tilted>0</tilted></_>
    <_>
      <rects>
        <_>
          2 2 3 17 -1.</_>
        <_>
          3 2 1 17 3.</_></rects>
      <tilted>0</tilted></_>
    <_>
      <rects>
        <_>
          2 2 6 12 -1.</_>
        <_>
          2 2 3 6 2.</_>
        <_>
          5 8 3 6 2.</_></rects>
      <tilted>0</tilted></_>
    <_>
      <rects>
        <_>
          2 3 2 7 -1.</_>
        <_>
          3 3 1 7 2.</_></rects>
      <tilted>0</tilted></_>
    <_>
      <rects>
        <_>
          2 5 1 3 -1.</_>
        <_>
          2 6 1 1 3.</_></rects>
      <tilted>0</tilted></_>
    <_>
      <rects>
        <_>
          2 7 18 2 -1.</_>
        <_>
          2 8 18 1 2.</_></rects>
      <tilted>0</tilted></_>
    <_>
      <rects>
        <_>
          2 8 4 8 -1.</_>
        <_>
          2 8 2 4 2.</_>
        <_>
          4 12 2 4 2.</_></rects>
      <tilted>0</tilted></_>
    <_>
      <rects>
        <_>
          2 8 6 12 -1.</_>
        <_>
          2 8 3 6 2.</_>
        <_>
          5 14 3 6 2.</_></rects>
      <tilted>0</tilted></_>
    <_>
      <rects>
        <_>
          2 8 9 16 -1.</_>
        <_>
          5 8 3 16 3.</_></rects>
      <tilted>0</tilted></_>
    <_>
      <rects>
        <_>
          2 9 3 8 -1.</_>
        <_>
          3 9 1 8 3.</_></rects>
      <tilted>0</tilted></_>
    <_>
      <rects>
        <_>
          2 11 6 5 -1.</_>
        <_>
          4 11 2 5 3.</_></rects>
      <tilted>0</tilted></_>
    <_>
      <rects>
        <_>
          2 11 9 9 -1.</_>
        <_>
          5 11 3 9 3.</_></rects>
      <tilted>0</tilted></_>
    <_>
      <rects>
        <_>
          2 17 12 3 -1.</_>
        <_>
          2 18 12 1 3.</_></rects>
      <tilted>0</tilted></_>
    <_>
      <rects>
        <_>
          3 0 2 2 -1.</_>
        <_>
          3 0 1 1 2.</_>
        <_>
          4 1 1 1 2.</_></rects>
      <tilted>0</tilted></_>
    <_>
      <rects>
        <_>
          3 0 4 1 -1.</_>
        <_>
          5 0 2 1 2.</_></rects>
      <tilted>0</tilted></_>
    <_>
      <rects>
        <_>
          3 2 20 16 -1.</_>
        <_>
          3 10 20 8 2.</_></rects>
      <tilted>0</tilted></_>
    <_>
      <rects>
        <_>
          3 4 7 20 -1.</_>
        <_>
          3 14 7 10 2.</_></rects>
      <tilted>0</tilted></_>
    <_>
      <rects>
        <_>
          3 7 2 2 -1.</_>
        <_>
          3 7 1 1 2.</_>
        <_>
          4 8 1 1 2.</_></rects>
      <tilted>0</tilted></_>
    <_>
      <rects>
        <_>
          3 8 10 8 -1.</_>
        <_>
          3 8 5 4 2.</_>
        <_>
          8 12 5 4 2.</_></rects>
      <tilted>0</tilted></_>
    <_>
      <rects>
        <_>
          3 8 21 8 -1.</_>
        <_>
          10 8 7 8 3.</_></rects>
      <tilted>0</tilted></_>
    <_>
      <rects>
        <_>
          3 13 2 4 -1.</_>
        <_>
          3 13 1 2 2.</_>
        <_>
          4 15 1 2 2.</_></rects>
      <tilted>0</tilted></_>
    <_>
      <rects>
        <_>
          3 13 3 9 -1.</_>
        <_>
          4 13 1 9 3.</_></rects>
      <tilted>0</tilted></_>
    <_>
      <rects>
        <_>
          3 16 1 8 -1.</_>
        <_>
          3 20 1 4 2.</_></rects>
      <tilted>0</tilted></_>
    <_>
      <rects>
        <_>
          3 20 16 2 -1.</_>
        <_>
          3 20 8 1 2.</_>
        <_>
          11 21 8 1 2.</_></rects>
      <tilted>0</tilted></_>
    <_>
      <rects>
        <_>
          4 0 2 1 -1.</_>
        <_>
          5 0 1 1 2.</_></rects>
      <tilted>0</tilted></_>
    <_>
      <rects>
        <_>
          4 1 3 11 -1.</_>
        <_>
          5 1 1 11 3.</_></rects>
      <tilted>0</tilted></_>
    <_>
      <rects>
        <_>
          4 5 1 2 -1.</_>
        <_>
          4 6 1 1 2.</_></rects>
      <tilted>0</tilted></_>
    <_>
      <rects>
        <_>
          4 5 3 11 -1.</_>
        <_>
          5 5 1 11 3.</_></rects>
      <tilted>0</tilted></_>
    <_>
      <rects>
        <_>
          4 9 12 2 -1.</_>
        <_>
          4 9 6 1 2.</_>
        <_>
          10 10 6 1 2.</_></rects>
      <tilted>0</tilted></_>
    <_>
      <rects>
        <_>
          4 9 13 12 -1.</_>
        <_>
          4 13 13 4 3.</_></rects>
      <tilted>0</tilted></_>
    <_>
      <rects>
        <_>
          4 11 3 6 -1.</_>
        <_>
          5 11 1 6 3.</_></rects>
      <tilted>0</tilted></_>
    <_>
      <rects>
        <_>
          4 14 10 5 -1.</_>
        <_>
          9 14 5 5 2.</_></rects>
      <tilted>0</tilted></_>
    <_>
      <rects>
        <_>
          4 14 6 3 -1.</_>
        <_>
          4 15 6 1 3.</_></rects>
      <tilted>0</tilted></_>
    <_>
      <rects>
        <_>
          4 14 7 3 -1.</_>
        <_>
          4 15 7 1 3.</_></rects>
      <tilted>0</tilted></_>
    <_>
      <rects>
        <_>
          4 15 6 1 -1.</_>
        <_>
          7 15 3 1 2.</_></rects>
      <tilted>0</tilted></_>
    <_>
      <rects>
        <_>
          4 22 6 1 -1.</_>
        <_>
          6 22 2 1 3.</_></rects>
      <tilted>0</tilted></_>
    <_>
      <rects>
        <_>
          5 0 9 4 -1.</_>
        <_>
          8 0 3 4 3.</_></rects>
      <tilted>0</tilted></_>
    <_>
      <rects>
        <_>
          5 0 8 2 -1.</_>
        <_>
          9 0 4 2 2.</_></rects>
      <tilted>0</tilted></_>
    <_>
      <rects>
        <_>
          5 0 8 4 -1.</_>
        <_>
          9 0 4 4 2.</_></rects>
      <tilted>0</tilted></_>
    <_>
      <rects>
        <_>
          5 0 4 15 -1.</_>
        <_>
          5 5 4 5 3.</_></rects>
      <tilted>0</tilted></_>
    <_>
      <rects>
        <_>
          5 1 6 15 -1.</_>
        <_>
          7 1 2 15 3.</_></rects>
      <tilted>0</tilted></_>
    <_>
      <rects>
        <_>
          5 2 11 20 -1.</_>
        <_>
          5 12 11 10 2.</_></rects>
      <tilted>0</tilted></_>
    <_>
      <rects>
        <_>
          5 3 12 9 -1.</_>
        <_>
          9 3 4 9 3.</_></rects>
      <tilted>0</tilted></_>
    <_>
      <rects>
        <_>
          5 5 8 6 -1.</_>
        <_>
          5 5 4 3 2.</_>
        <_>
          9 8 4 3 2.</_></rects>
      <tilted>0</tilted></_>
    <_>
      <rects>
        <_>
          5 8 3 7 -1.</_>
        <_>
          6 8 1 7 3.</_></rects>
      <tilted>0</tilted></_>
    <_>
      <rects>
        <_>
          5 10 10 2 -1.</_>
        <_>
          5 10 5 1 2.</_>
        <_>
          10 11 5 1 2.</_></rects>
      <tilted>0</tilted></_>
    <_>
      <rects>
        <_>
          5 12 6 12 -1.</_>
        <_>
          7 12 2 12 3.</_></rects>
      <tilted>0</tilted></_>
    <_>
      <rects>
        <_>
          5 12 7 6 -1.</_>
        <_>
          5 14 7 2 3.</_></rects>
      <tilted>0</tilted></_>
    <_>
      <rects>
        <_>
          5 15 15 3 -1.</_>
        <_>
          5 16 15 1 3.</_></rects>
      <tilted>0</tilted></_>
    <_>
      <rects>
        <_>
          5 15 16 9 -1.</_>
        <_>
          5 18 16 3 3.</_></rects>
      <tilted>0</tilted></_>
    <_>
      <rects>
        <_>
          5 19 9 3 -1.</_>
        <_>
          5 20 9 1 3.</_></rects>
      <tilted>0</tilted></_>
    <_>
      <rects>
        <_>
          5 22 2 2 -1.</_>
        <_>
          5 23 2 1 2.</_></rects>
      <tilted>0</tilted></_>
    <_>
      <rects>
        <_>
          5 22 12 1 -1.</_>
        <_>
          9 22 4 1 3.</_></rects>
      <tilted>0</tilted></_>
    <_>
      <rects>
        <_>
          6 0 3 13 -1.</_>
        <_>
          7 0 1 13 3.</_></rects>
      <tilted>0</tilted></_>
    <_>
      <rects>
        <_>
          6 0 6 9 -1.</_>
        <_>
          8 0 2 9 3.</_></rects>
      <tilted>0</tilted></_>
    <_>
      <rects>
        <_>
          6 0 10 2 -1.</_>
        <_>
          6 0 5 1 2.</_>
        <_>
          11 1 5 1 2.</_></rects>
      <tilted>0</tilted></_>
    <_>
      <rects>
        <_>
          6 1 18 5 -1.</_>
        <_>
          15 1 9 5 2.</_></rects>
      <tilted>0</tilted></_>
    <_>
      <rects>
        <_>
          6 3 18 1 -1.</_>
        <_>
          12 3 6 1 3.</_></rects>
      <tilted>0</tilted></_>
    <_>
      <rects>
        <_>
          6 3 18 5 -1.</_>
        <_>
          12 3 6 5 3.</_></rects>
      <tilted>0</tilted></_>
    <_>
      <rects>
        <_>
          6 4 3 9 -1.</_>
        <_>
          7 4 1 9 3.</_></rects>
      <tilted>0</tilted></_>
    <_>
      <rects>
        <_>
          6 5 3 18 -1.</_>
        <_>
          7 5 1 18 3.</_></rects>
      <tilted>0</tilted></_>
    <_>
      <rects>
        <_>
          6 8 3 8 -1.</_>
        <_>
          7 8 1 8 3.</_></rects>
      <tilted>0</tilted></_>
    <_>
      <rects>
        <_>
          6 8 4 2 -1.</_>
        <_>
          6 8 2 1 2.</_>
        <_>
          8 9 2 1 2.</_></rects>
      <tilted>0</tilted></_>
    <_>
      <rects>
        <_>
          6 9 7 15 -1.</_>
